encog,BasicNetwork,java,3.1.0,1,1386256151313
[BASIC]
[BASIC:PARAMS]
[BASIC:NETWORK]
beginTraining=0
connectionLimit=0
contextTargetOffset=0,0,0,0
contextTargetSize=0,0,0,0
endTraining=3
hasContext=f
inputCount=15
layerCounts=2,42,42,16
layerFeedCounts=1,41,41,15
layerContextCount=0,0,0,0
layerIndex=0,2,44,86
output=0.3743600045,1,0.9943069444,0.8165368575,1,1,0.9973474611,0.4828058162,-0.186603403,0.997845444,0.996228064,0.9857758218,0.9987331927,0.6736427861,-0.6324087839,0.9999998933,0.6177518206,0.9999999994,0.9893984466,0.9999999966,0.9999935232,0.9828829101,0.4597944735,1,0.9999866305,1,0.995513286,-0.9998872501,0.910225737,0.9998005693,0.9945276232,1,0.9905072758,0.9989051857,1,0.9965684516,0.9979155794,0.993368052,0.8976318414,0.7139943736,0.8024474241,0.9693389404,1,1,-0.2017568252,0.8527631052,-0.9387438813,-0.1788603868,0.8649947619,0.9468370405,0.0999955012,0.8683465772,0.1998089255,0.8875117074,0.9999624716,0.1096758067,0.2359841913,0.1269426325,0.7893452811,0.9745022881,0.8555015245,-0.8102873598,0.9011605091,0.5889104963,0.5650481517,0.9500303566,0.6627280533,0.7427103277,0.8959554937,0.9022320802,0.7775460604,0.7542641977,0.8405686122,0.8686033624,0.8316584026,0.2712351744,0.897009853,0.9554767436,0.1383176691,-0.8906745499,0.9927016636,-0.1022427572,0.105284115,0.2677959616,-0.9312065137,1,0.3804730242,0.3804730242,0.3804730242,0.3771063042,0.3754229442,0.3703728642,0.3754229442,0.3737395842,0.3787896642,0.3787896642,0.3686895043,0.3737395842,0.3737395842,0.3720562242,0.3720562242,1
outputCount=1
weightIndex=0,42,1764,2420
weights=##0
##double#2420
   -0.0946100704,-0.0582252528,0.0221672215,-0.5888777185,-0.0735571119,0.1619649536,0.1577862867,-0.1320521872,0.2614604767,-0.0515220497,0.0967776513,0.114690704,-0.0715441318,0.3170370525,0.0327778714,0.2728602782,-0.0291177677,0.0914920832,-0.032953487,0.1117947829,0.3488662228,-0.0350731423,-0.0647065126,0.2675104992,-0.0802859676,0.1714165712,0.026474423,-0.128981311,-0.0810234678,0.0187313928,0.0539478549,-0.0961916791,0.0313682042,0.2839597436,-0.0958750552,-0.0751509088,0.1065009316,0.0256486632,0.1729932225,-0.1066349001,-0.0738843266,-0.0073819391,0.5494650682,0.0105823927,-0.0276752551,0.2502619381,0.252520229,0.4146989763,0.2135176309,0.2755223301,0.1627767257,0.136621089,0.0413579884,0.0787756314,0.0156188603,0.2014748356,0.0229812066,0.2516010268,0.5363506528,0.6020032726,0.5580223998,-0.0165345124,0.226384223,0.8503217045,0.077304456,0.1798777663,0.0452334065,0.1506766198,0.0475010289,0.5756937232,0.3168931959,-0.1727460107,0.1256876601,0.2605673128,0.064645729,-0.9802683389,-0.088314262,0.2649418074,0.4605842744,0.1098810027,0.3258776355,0.3574018572,0.3862232717,0.0685293456,-4.0026468667,0.151314218,0.0005246811,-2.394763861,0.7325883222,-0.0360838656,15.9958913007,0.2115605685,-1.1132371499,-0.0460442526,-0.1251019351,-1.005322367,-0.1442268101,5.8503526919,-0.0696312243,0.3202190103,2.4688938304,0.3430063771,0.2783164837,-0.1964110565,0.2732076088,0.600111946,0.020746283,0.9330175136,0.1022253101,0.2731973899,0.7145305964,0.7938220329,-0.1004504098,0.2249191686,0.2594341924,-0.8600015814,0.1799783816,3.6454172024,-0.4076932735,5.3642219485,0.2606084592,0.3881305068,-3.3820147743,-0.1096765485,6.6191328661,-0.5344811508,-286.312987915,1.3565310849,-1.1370820264,-75.3990388422,1.0033085911,1.5797315728,402.0881799997,0.0576111217,2.9644998171,1.2569439935,1.9296907571,0.9126620391,-0.6935327369,-13.5440101645,1.4588853927,0.8860832089,1.7403854368,-0.4262262335,1.4528710024,0.1768199255,1.2404597991,1.3619760929,-1.3598866873,0.7803935317,1.2846970203,1.4273404053,0.7961636192,0.8637997318,1.1608583665,1.428533081,0.9704890276,-6.0340061154,1.3152576721,1.1695092404,1.2637762824,-1.4114959683,1.7532378624,-58.7380353255,425.761481403,-1.2895047501,-1.2118253999,2.0304169145,0.2262081612,0.0904509691,0.1900505421,22.5277404743,0.333350914,0.2092257573,0.3130905667,-0.3167662897,25.9720401404,-0.0561369797,0.3132093961,-11.1235476989,-0.0848195886,-0.2708927748,-0.1778135919,0.2425710778,-8.3524384341,0.3834513257,0.27964853,0.2561144211,0.0321457682,0.1384823805,0.3109056764,0.1576969807,0.0895260411,-0.1483610959,0.5633603824,0.3923963954,0.2225278356,-0.1044857867,-0.1632206634,81.2482754562,-0.124014089,0.9092678569,0.5471569932,0.1452973719,1.1519074932,0.3198116574,-1.6648675017,-6.9043586901,0.7056933786,0.1091515556,0.41684701,-0.1388488105,0.0637793285,0.3287295397,0.3147427844,0.50874978,0.3350709893,0.3929311571,0.1199689358,0.180262019,0.3692335893,-1.3638496144,0.1643553636,0.3764317661,-0.0048329586,0.3573877829,0.3269229569,0.4115201023,0.7788320771,-0.0018589395,-0.0754445996,0.438910425,0.0592960482,0.0797477588,-0.1400709217,0.0847075523,0.2191052956,0.2519714866,0.2610285514,-0.0482539137,0.0264306278,0.0895469314,-0.1049397468,0.4182675357,0.1359573482,0.0842064005,0.0032714819,0.1373338406,0.2693505666,0.0103559385,0.3197617597,0.0430478602,-0.2545299827,-0.0295298493,0.3589842681,1.9921035887,-0.1099488637,0.192044751,0.1942072226,-0.0636459194,0.7729055939,0.0319886439,0.3064276874,-0.0073655628,-0.2595399595,0.2546797878,0.1878955884,-0.1763746059,-0.0388750887,0.1307023373,0.1312835197,0.3296288362,-0.1651165353,0.2160417676,-0.035290608,0.1312943414,0.1693472584,0.0085977749,-0.0308035572,0.3218964267,0.0143758661,0.2327915429,0.0541829376,0.5295040518,-0.0795889727,0.0364348081,-0.1479377712,0.6578927207,0.0517943851,0.0496116005,0.5989957029,0.2969502608,0.2974616595,0.297375032,-4.1219745185,-0.1083744835,0.2243570718,0.2263543072,0.2084160664,0.1174710888,0.6834269905,0.0297169831,0.0451222381,0.044774601,0.2381637061,-0.6719180081,-0.1552315835,0.0324131407,-0.098481386,0.0980431139,-1.0520652765,0.287086308,0.1281339216,0.0540562158,-0.0568413809,0.2917132877,-0.2252978462,0.0723823291,-0.1876932719,-0.0770528984,0.0383154441,0.1191210342,0.2641713582,0.1018958868,-0.1677416661,-0.0767667231,0.0241460122,-0.097787813,-0.3318989011,0.6910762974,0.0412338028,2.5372853905,3.4023745039,0.2194790839,0.2267331668,0.2884513063,0.1792604368,0.0593713024,-0.1747594414,-0.0853745992,0.4083415288,0.285414607,0.3806489706,0.2963636711,0.1347113993,-0.0178799102,0.0278593741,0.3185512706,0.1284764728,0.3002363715,-0.0546187753,0.4613989419,0.272690671,0.1497399119,0.1640918545,-0.0722340213,-0.1595697095,0.2191115577,0.2308579091,0.2267357894,0.0355293301,0.1877636732,0.4389041381,0.1537888017,0.3829570643,0.0464495417,-0.249536457,-0.0084084677,0.1336746355,0.3325623606,0.0765525809,0.1552933636,-0.026616584,0.3956584602,0.2107062967,0.2015548314,0.1656293224,0.1220634849,0.2445075183,0.2372821916,0.2323895043,0.0114933397,-0.0662106851,0.4082770931,-0.0662254172,0.3615911889,0.6853714478,0.0709719938,0.1194490309,-0.0650291188,0.3570487452,0.4918758159,0.1986599724,-0.4315003201,0.3193166556,0.1387615323,0.1537406575,0.191612913,0.2623095132,-0.5683335871,0.2244652598,0.4643341818,0.2395454177,0.4085368991,0.6050638943,0.4601568881,0.4082763361,0.0991724303,0.3163877396,-0.4641067247,0.2897696858,-0.4750196955,-0.0575525078,0.0210394068,0.1765563004,0.3634083265,-0.0619649153,0.0419614723,0.0643977483,0.0274075525,1.9972675937,-0.0607371822,-0.1659922919,0.7006738799,1.0591669955,0.2939032431,-1.7466077567,-0.679498055,0.3654794533,0.1146681464,-0.1285582736,-15.4938318315,0.9951633031,1.659286205,-0.0067052521,0.6039870537,1.583006828,0.5374232855,0.0626899373,-0.0449531143,0.2371568428,0.4576587914,1.5857417066,0.3061749456,0.1342389734,0.0816598611,0.4074627743,0.3128973589,-0.016263188,0.1871100541,0.0141762572,-4.1751936427,-0.129600027,0.211030858,6.1984100308,-0.0138534076,0.2759961967,1.7830240043,5.1953165902,-0.0836052971,1.0782534287,-0.0499665812,0.0522986621,0.3288161454,0.1177959699,0.0728619916,0.1350730208,0.1057114427,-0.1974430261,0.1383759709,0.2500869503,0.0938723329,0.1537008836,5.091826781,0.3341167643,0.3272884391,0.1337688978,-0.5298993533,0.1356294599,0.1533648201,0.1941094801,-0.1336370031,0.3451910691,0.1057544587,-0.2395366668,0.2792737789,0.2195425166,0.4030740788,0.3454737915,0.6047205064,0.2367898926,0.0430782187,0.2837980016,-0.1211027043,0.3469096818,0.2220749864,0.1939875214,0.2177932557,0.0325400078,0.3408835295,0.2536921205,-0.0787945007,-0.2382143925,-0.0747391887,0.2413791169,0.1939517101,0.3729511675,0.1908342585,-0.1754759095,0.1309199822,0.2951585825,0.1462848436,0.4866451931,-0.0303050165,0.2424875158,0.0267626468,-0.0383668841,0.4432031619,-0.130464613,-0.0252135965,0.0087878303,0.3381758911,0.22128064,0.1750911769,-0.1112736827,-0.0210479032,-0.1935785537,0.0386302496,-0.0453846117,0.0340445175,0.269890704,0.2931218204,0.2480093992,0.048419563,0.122876242,0.053359897,0.1931201272,-0.0866867175,0.2191926568,0.5824433788,0.2343846873,-0.0035282438,0.6546593218,0.0959307891,0.2126225394,0.3474555929,-1.6784052373,0.15712115,-0.226921808,0.2117399606,0.4486967283,0.1944151454,0.080648289,0.3650136139,0.6482270362,0.0344049286,-0.1635954135,2.5725855769,0.2175844648,-0.0399713901,0.2927012934,-0.0893009847,-5.9256016416,0.1743610147,0.2057443805,0.0284601483,0.0557866742,0.5229480627,0.3310982497,0.4119252884,0.0983888215,0.2493494361,0.2861617212,0.3341036124,0.1527642029,0.0555070915,0.0677218289,0.0148064102,0.2843592395,0.1321701567,0.4295735174,-0.6962699358,-0.2922426118,0.2654872463,0.4689994615,-0.1918692208,0.3287031713,-0.2647181528,0.5084331469,0.1192165223,0.0435823311,0.8772902909,-1.1420021618,0.1853197573,-0.2234833152,0.7622791192,0.2354526319,0.3371353106,0.1775005188,-3.6261963304,-1.4616954446,0.4450384748,0.1754814729,0.0891338566,0.1023050383,0.3137831329,0.1688825987,0.0081227601,0.1707515731,-0.3436788788,0.1438241645,0.3866154213,0.1192159335,0.2582772866,3.7529538836,1.2273159515,0.3863660647,0.1190293048,0.2416581954,8.4255376694,0.3742223543,1.223681855,0.3244055742,-0.0621945179,0.0977819541,0.2801076021,0.0343411715,-0.1040318284,-0.1515185935,-0.3496846441,0.7813490134,-0.0817731701,0.2228316028,-0.0751031201,-0.1288972314,0.0947296332,0.2579830444,-0.0407300311,0.2585976305,-0.0190909254,0.011226446,0.1372944258,0.1582893744,0.1120754768,0.0410513426,0.2452820152,-0.0240641759,0.5008335435,0.2591767304,0.258245743,-0.003264566,0.0585164991,-0.0350304971,0.0417760228,0.096684381,0.2081692435,0.0649885402,0.2312019243,0.2225547383,-0.0970531854,0.0045497863,0.095391046,0.1607986516,0.0611891414,0.0237396881,0.3276891129,0.0574640982,0.2888757412,0.4773788163,0.1440994489,0.2159741604,0.309883897,0.2919269157,0.2897961589,0.455561995,6.5591861216,-7.9292862548,0.3689474726,10.2228627718,2.9241165581,0.5215492996,0.2333947059,-0.2431653367,5.8741867197,-0.4501328029,0.1746889412,0.1167674265,-0.2761586935,-1.0747058071,0.3999234644,0.0119897261,0.0034089496,0.2019074614,-3.8961826162,0.0247320977,1.3833846186,0.1721758103,0.0533039511,15.5103941986,1.1291657396,0.251184924,0.1382823056,0.1388691823,23.1927255305,0.3972238859,0.8244390529,-0.0950252765,0.1411335291,-2.2875659456,0.408152018,-0.0896850026,0.1663215188,-0.3543365375,-0.3004662794,0.2674250833,0.06026674,0.1157158106,0.3592714042,0.2821035223,0.2317325613,0.2558356899,0.1411479687,0.3571548605,0.0022777748,0.0784129116,-0.1527666441,-0.1431637702,0.1519090351,0.2152664689,0.5438342402,0.2705521111,0.273439004,0.1470951366,0.0778609054,0.0661945814,0.1795668831,-0.1341436661,0.2143526513,-0.0951696804,0.1863009795,0.3605251815,0.3739450682,0.2137607372,0.0617595556,-0.0570514419,0.1156202052,-0.1417728341,0.5088086591,0.0008161107,0.1678002721,0.0929515897,0.2251100274,0.3222253261,0.0345590977,0.2901597066,-0.020178823,0.3612388141,0.0639652136,0.3723664045,-0.0046242356,0.0874755783,1.7302732529,-0.1561907587,0.1418202176,0.2862749133,0.1736907535,-0.1269100418,1.0053000853,0.7955877768,0.2748059133,0.1360109052,-0.1008880165,0.0532578038,0.11006755,0.3442836859,-0.0960277408,0.073499902,0.0392741508,0.2434734451,0.4641047507,0.0978036042,0.3829412551,5.36919438,0.7058045534,0.1873140643,0.0464371317,0.1213678479,0.0318503979,0.1860855163,1.3965196033,0.3578930999,0.0412665153,0.5865827918,0.4647790668,-0.0882147039,-0.1627857734,0.1392300771,0.10917767,0.4815599544,0.1261892564,0.2974446446,0.4462959859,0.2839372304,0.5829453276,1.1546878533,27.6360075082,0.2592722606,-0.0791971997,0.9237972409,24.1645079046,15.3384018069,0.2357560701,0.2621035864,0.7362917792,0.9534446277,0.5804039874,0.3319622602,0.170509226,-0.0784031958,-5.3858471469,-32.2585973201,0.2718348565,-0.0036258794,0.1006333471,0.3852802832,0.3066743558,0.2052770237,0.1148138998,0.237797629,7.8983694421,-0.811287989,-0.7084234747,1.5867655343,0.3520637494,0.1876943082,0.5171451493,0.8668239705,-12.1338246175,-0.443827657,0.1008161355,0.1706916285,0.3725590226,0.0693495575,0.0270884704,-0.4294918971,0.2866232944,-0.2216196228,-0.0385733835,0.4389322427,0.1310798239,0.0514405497,0.023957298,0.2031536897,0.2233043749,0.2862562705,-0.3629482336,0.1497977421,0.2143455027,0.4471545788,0.1876724689,0.3422969647,-1.2274899313,-0.0017333376,0.4385786911,0.0525785995,0.2187961055,0.5974028927,0.1192858532,0.5261501452,0.2891413677,0.2563080306,-0.0115840159,0.2486638716,0.0457060553,0.0103940414,-0.019038836,0.2484421381,0.1544233565,-0.0026687813,0.2003014736,0.0526866944,0.0694356313,0.2111091671,0.3611358316,0.4237313381,-0.7375692189,0.2332152249,0.1216221627,0.0619377733,-0.0518834319,0.6514628851,0.1636706106,-0.1378424203,-0.0169241973,-0.0792000289,0.7332274017,0.0510924856,-0.0571990823,0.1177307405,0.2710768125,0.2062894129,0.1807720215,0.1504665038,0.1330551184,-0.4303787236,0.4346747374,0.1692244283,0.3590529138,-0.9383006261,0.4067794746,0.2187995981,0.0610680738,0.0340528501,0.0836443953,0.0904802067,-0.03774096,0.0149753331,0.2360412645,0.1985290746,0.25773313,0.2062157837,0.1983174275,0.4101935999,-0.4389641378,5.7702961663,0.1880434878,0.0962119623,-41.298778251,1.5335546841,0.9510144193,36.1387752066,0.2205721409,-6.9695635987,0.3176377565,2.4625956674,144.567967662,-3.6663749918,2.7537597385,-0.2481112307,0.4235693803,2.8297248805,0.1776055435,0.7221951175,0.259016167,-0.112618075,0.5041027689,0.1260612657,1.4817015483,0.3428702768,-0.0004814227,0.4898078103,-20.5002555285,-0.3232673806,-0.2358438043,0.0061180669,-28.7514303911,0.3281351076,1.2121029755,0.7143219304,-3.4357492531,10.3788211613,-0.0830754448,12.1572043674,9.9132384148,2.3363078272,0.0293573184,1.6735736816,-0.1530700851,0.2038884912,-7.9120119919,0.2259670817,0.1264114919,-1.2090299451,0.1557157069,-5.2963888931,-0.2403542905,0.0465293303,-1.9294345939,1.0483427964,40.6093351092,0.0116023242,0.2144813399,3.8662284213,0.4678705917,0.1855778407,0.2722147687,-0.1055217853,0.4401025099,-0.0665068522,0.4324387446,-0.2499886272,-0.2420748964,0.5414434311,0.2119818654,0.3512157025,-0.2463068132,-0.2669430751,-2.218834127,-0.209619045,0.3958979828,-1.0838806085,3.1960594428,0.4889082247,0.6174526395,2.8102377483,0.0299935023,0.8663385131,0.2882756568,0.2306045544,0.333014781,0.1140834559,12.389147324,-6.5765476811,0.1716439091,0.153758721,0.3300694976,0.5484194855,0.3199724235,-0.7467114699,-22.192912153,0.1794409934,0.4940585987,0.1186654513,-0.1197273888,-0.5357199658,0.348052434,0.1426810695,-0.1345964783,0.3057898587,-0.9601526478,0.0963816582,0.5266180995,0.2302790354,0.2367678491,24.8225773583,2.7774896993,0.3529390137,0.3035172067,0.0259593892,82.5186069231,0.2846447517,0.6038285914,1.1934913012,0.1966745071,-7.2142542915,0.1671824846,0.061655029,0.1690394519,-3.5588053346,-0.4244762876,0.1922629026,0.18442128,-0.0164007198,0.1859827597,0.4485771246,0.2625030127,0.1946909222,0.2879860097,0.1182450507,0.0879010861,0.33543707,-0.0226455164,-0.0865367243,0.0480948638,0.094535057,0.1398780464,0.3553147468,0.3752874194,0.4678991317,0.0250547718,0.1020035892,0.201166431,0.0190747445,0.2854112117,0.0378518187,-0.0368414141,0.2213256392,0.2162613543,0.3675201176,0.1711721159,-0.1561345724,0.1745964477,-0.0515395116,0.3799665969,0.0526605625,0.3334221059,0.3373223946,0.3072214884,0.1932870149,0.1221632315,0.35784943,-0.2602100886,-9.3511562497,-0.2679293368,0.1342121835,-6.2367990041,0.1345686362,0.2139805073,-1.8271289809,0.1858027021,0.800790638,-0.2720254864,2.3676920207,-1.1720457317,0.6234499007,0.9142371285,-0.2926988205,0.1042745746,-0.1263115922,0.2461094295,0.1369166314,-0.0661917908,-0.0111812974,0.2207738213,-0.1881179473,0.1515195611,-0.1333782626,0.0683057039,0.0878530246,0.1062003241,-0.1922718163,-0.0455254745,-0.0268133715,2.1788888527,0.0750390076,0.2971802039,3.0145754477,-0.25219729,0.2995515157,5.2402403722,-2.6022516668,0.0559091556,12.1580173327,0.2714496203,0.0903331824,0.2331840594,0.0842081835,0.8038166328,-0.025338462,0.2691093619,0.0953962096,-0.29145743,0.4974440859,0.3984315416,0.1752507053,0.3006461792,0.3056418262,0.2244862449,0.3907192185,-0.1538697264,0.0265451914,0.1819036367,0.3179568209,0.1971992765,0.2140090793,-0.3981105801,-0.054753652,0.1493030511,0.1170936393,0.4226689545,0.3781557915,0.0118718077,0.2157382938,0.2668593737,0.3498005629,0.0631564492,0.4000104225,-0.772613468,0.0156027448,0.2091378357,0.0110919942,0.1655007448,0.12965844,0.1712680522,0.3045796298,-0.150795169,-3.1667159059,0.1044266385,-0.0233905557,-2.7212985603,1.5145234038,0.2083745214,0.9983129008,0.4184763153,1.5890730571,-0.095551462,-0.4579642642,-6.1395995806,0.3255354963,0.1140629579,0.0891941903,0.5741330951,0.7198687441,0.2094117319,0.2938738375,-0.0830372896,0.1542974505,0.1144368268,0.5555888115,0.308743989,-0.0898228641,-0.0135989872,0.181304123,2.94475838,0.0996911178,-0.0061781381,-0.2271464297,-0.2164255928,-0.0354400901,0.2113148443,-2.4749948333,0.0446790753,0.0989052693,0.2537377298,1.2492160533,-0.7404105463,1.8309528759,-0.0674120836,0.5025020833,0.1411573487,0.0174849604,0.2336518155,0.164422669,0.2541096627,0.1008966508,0.2685941687,0.0397818299,-0.1061972046,0.0907423359,0.1086397988,-0.1342088601,0.2593600942,-0.167167953,0.4387290106,0.2588806393,0.4266350217,0.4848450708,0.0167205335,0.139229714,0.5950380399,0.1392697769,0.1718094817,0.202428643,-0.0047591865,0.163551328,0.4954153718,0.1996884107,0.1796106203,-0.0413469625,0.1595407851,-0.0825451982,0.1202795144,-0.1406564644,0.2709081077,0.4169529099,0.28921821,0.3354870576,0.2990131058,0.504401744,0.0418421484,0.2502693518,0.3889874139,0.15809456,1.9964367183,-95.5250429682,-196.8217571561,-0.2186909086,234.5555530883,0.5928608862,0.1130685574,-0.2114788015,-29.7078443373,-1.0017968702,0.2618080238,0.3916759205,-84.8782780054,9.0278149481,0.4376242654,-2.1286200607,-0.0328291794,0.2609186335,263.8789994151,4.4127676448,0.4100948379,0.447466844,0.1702333384,1.8551252481,0.2847237916,0.176736578,0.3446037651,0.4755578023,22.046235393,0.1457906159,-6.5041337108,-3.7190110447,-0.0074527038,32.6246198456,0.4286557108,-0.1547764515,0.2507754084,-0.6274395276,-0.41210535,0.1494744486,0.2589612046,0.0772800165,3.3638526037,-0.1536081897,0.1392333029,12.3866510806,-0.2014440513,-8.2157900309,0.2782408465,-0.3444656565,0.4362693293,0.5574216849,9.9303856456,0.4751588865,-0.2360980288,0.1937028174,0.0822679153,0.4155872802,0.1742815618,0.3809357512,-0.7315576799,0.1263862485,0.0084831827,0.3147123116,0.4214757196,0.2569331976,0.2057794238,0.3971559201,0.3371410214,0.5954857894,-0.6537157237,0.1878085667,-0.2202023438,8.1803078055,0.9490504609,0.0418062906,0.3297704845,0.4149897646,0.4275580696,0.7042342258,0.3450447025,0.0673060952,0.045619139,-0.0909494785,0.0743747201,0.3644779882,0.2362331854,0.1105681302,0.2709287242,0.1514656395,0.1122019717,0.1185222999,2.2071139849,-0.1934216233,0.2150351363,-0.2087419738,0.4784913244,0.4910536858,0.2403678986,0.3532547499,0.1625257785,-0.2312351304,0.2329430459,0.3681232217,0.4587096467,0.0075302643,0.0680396417,0.265368554,0.2344382157,0.0717861835,-0.0749625498,-0.0865158114,-1.0370167869,-0.0691505925,0.5412862401,-0.2464853522,0.0000789412,0.3726432442,0.4373044049,0.2800417796,0.1877696944,0.241953831,0.0899745101,-0.2655923726,0.1551864156,-0.0382525355,-18.4042549859,-0.0955346641,0.3984893056,-0.354263917,0.0319847581,21.4458491306,0.1016704784,1.3853786425,4.8731968295,-14.91795059,167.7027406868,0.4338986553,-0.2129643542,3.248167333,0.2194248812,0.1912175529,0.0395820804,0.2769484502,-2.1799524483,-0.0108061832,0.1009456452,0.0996994524,0.1153527666,0.6019631951,0.3686601569,0.3367450296,0.4326357643,0.3179237852,-36.2492981005,0.3086661206,0.059758142,7.6961429474,6.2160783243,0.1926244053,-4.3390549595,36.4504686583,0.3472317948,0.27323843,-0.128071451,0.2641061849,0.2851299353,0.2819490476,0.0288366163,-0.2007576061,0.0914062444,-0.0889575468,0.2984925779,0.3646474271,0.1179433269,-0.0080588648,0.1374547463,0.1996074778,0.3749565425,0.3592182093,-0.0627063231,0.2569995808,0.1786083148,0.425058004,-0.0736091322,0.3780904368,0.2143935359,0.1864562163,0.2283743841,0.031840387,0.2822206078,0.3145127293,0.669027408,0.3099733735,0.1525046077,0.2940565965,-2.309669045,-0.0935293246,0.3375761873,0.2247842035,-0.0635164046,0.4049949092,0.3707940701,0.0519366021,-0.0293092371,-0.2715475043,-0.5115350331,0.7380131816,-0.139969902,-0.0699450378,0.3169746517,0.2185905299,0.5620732174,0.0941171966,0.3294282924,0.3536617308,0.0451333068,0.1236352089,0.1204415817,-0.0364547782,0.2671966778,0.189862057,0.3885668637,0.3696972545,0.3079300949,0.6832261971,0.0967334818,0.0172907194,0.2483769716,0.0213867882,0.3702325781,-0.084795349,0.0501743344,0.0936058792,0.0734610763,0.2454508684,-0.1454146821,-0.0462628854,0.0882059674,-0.0842379177,0.3598651115,-0.1614866953,0.1051915041,0.343046741,0.3078576997,0.3167767325,0.2571369287,0.3427320199,0.1921960427,0.2947322996,-0.1363609917,-0.079026949,0.1614110134,0.286248552,0.5095724696,0.1117372296,1.1296594074,0.2520862213,0.0633413147,0.1795758709,0.0570221568,-0.0301647462,0.3541890245,-0.0370225337,0.4461073954,0.4761763471,0.2219330167,0.4552402077,0.0591355431,0.1222038274,0.6941588419,-2.8465050509,0.2435245974,-0.056039265,-0.1010245036,0.1511716122,0.2757995691,0.1368731384,0.0131610548,-0.0054133231,0.0245236622,0.1504207647,0.1910167804,0.1545763635,0.026008429,0.3915223528,0.3524793544,0.2798658151,0.0064487951,0.4767876281,0.2614423184,-2.4202047804,0.3127080761,-0.0360089733,0.8133402074,-0.3136710656,0.1814814839,-0.6907298594,-0.0798087627,0.9480714851,0.3418481002,0.425120315,0.3991089823,1.6147469636,0.2625531937,0.4685079368,-0.4108380389,0.1780971774,0.2112961613,0.3211084022,0.1784034543,0.1975049653,-0.2582528731,0.1014410685,-0.1309613998,0.2932457243,0.2268568558,0.3135346796,0.4009547258,0.3728926601,0.4980615681,0.2886217422,1.6647665261,0.289911201,-0.160794819,1.3432498198,0.8997733792,-0.221299817,1.0245462361,-4.1726306995,0.1375048921,1.9775279494,0.1234696997,0.1039056079,-0.1067078824,0.2293806983,0.0885853587,-0.1273699086,0.2155569838,0.3919859126,-0.1804491132,0.3965408082,0.0850958227,0.1657467354,-0.1530949463,0.0188629152,0.1754121302,0.0020412421,0.040887228,-0.0237765791,0.4937625419,0.3253189982,0.1329417058,-0.013504269,0.0439308816,-0.0324969191,0.3500281631,0.0172090226,-0.0074616163,0.1124256881,0.4658540752,0.2420950761,-0.0809060424,0.2084502781,0.1128580837,-0.1254263334,-0.0738406146,0.0143158445,0.1373339518,0.2124290735,0.1537232111,0.3332629608,0.2534274792,0.4277565249,0.2854917363,1.3648929316,-0.0316678498,0.3923912742,-1.4354017994,0.2460824174,-0.0192397072,0.0413845406,-0.021794754,-2.3331349159,0.1105549401,0.1051893702,-0.1688775744,0.0467654458,4.4557718558,0.0135172113,0.1743651809,-0.0367847309,0.4262875042,0.2865898676,0.1555749448,-0.0296190138,0.3113777692,0.1111115638,0.0204335082,0.0492677493,-0.033990592,-0.0001827005,0.1418341546,0.0323693568,0.0459801224,0.115062364,0.1283887875,0.1196302496,-0.0134642028,-0.0861585464,0.0019416711,0.2522915338,0.1922386295,-0.066239252,0.0382459531,0.0456780003,-0.0674569445,0.1336196843,0.1094218246,0.0504340513,2.5138520713,0.4933254484,0.1715714403,2.7784329229,0.1599975792,2.0340359472,-0.1081583245,0.0891258134,-0.7472077347,-0.6985673265,2.0625131193,0.0076760772,0.2310150233,0.268087931,0.0900811882,0.3173539571,-0.1175234043,0.0881632787,0.1237317081,0.225934822,0.3327879476,0.0782693659,-0.1406602443,0.444074605,0.314428582,0.1798021284,0.0787668308,-0.1572141823,2.6050762629,-0.1002217943,0.0651367718,0.0920029452,0.8074242068,0.1615974715,0.3629772053,0.2647096823,0.0158749394,0.5847445945,-0.2751183816,0.4852531209,-0.0279446217,0.0666043668,0.0171878852,0.5169841396,3.2410878223,0.1510582984,21.5008455571,0.1313331701,0.1651973342,-0.3445987592,2.6873789803,-0.1506836744,0.282478339,-0.0786843805,-7.9065485872,0.3465506958,0.5063505538,0.5714027147,0.1085692111,0.1403097786,-3.9986085643,0.3931054422,0.1088637915,-0.0405065761,-0.0020764069,3.0144300692,0.5663697336,0.0902641628,0.0742013605,0.1384674462,0.0149321951,0.0970989638,4.3216186869,-0.1365142735,0.2396117404,0.2712687239,0.2442452212,0.1940263577,0.303329477,0.4352522266,0.2754023828,-0.2716673928,-0.0669414029,-0.4764786165,-0.0987677509,-0.242464825,0.0858584041,0.2639490379,0.278852173,0.4000596899,0.2509769037,-0.0318800689,-0.1752338119,-0.0725669582,0.2386896292,0.1795118537,-0.2991155167,0.2183482831,0.4074868452,0.1975405523,0.328394735,0.2254593835,0.0794555876,0.288264688,0.3938408617,0.1055989464,0.296296472,0.0419408454,0.1211162796,0.1465076007,0.0400707019,0.1859860436,0.1077729635,-0.1455129038,-0.1022023384,-0.2834314744,-0.2599353504,-0.5022373595,-0.322768719,-0.3446571168,-0.4783258956,-0.4413857255,-0.1357221284,-0.459141156,-0.1473100292,-0.3084436768,-0.1261771235,-0.1660123128,-0.1440708232,0.1613221636,-0.024082714,0.0238741289,0.1191320865,0.1768218323,0.6401386974,-0.8515046677,-0.1094776244,0.6426105897,0.29552668,0.3768927461,0.2989914963,1.0334397595,-1.2177529897,-2.8291470877,0.2834664975,0.3723608756,0.5252944028,0.2389258777,0.6911302109,0.3266112076,0.2441188224,0.1808577269,0.35727431,0.3516423619,0.8331966274,0.5054949051,0.1663048863,-1.6995411888,0.0555501223,0.8557307101,-0.1958681142,0.2937343231,0.6245817071,0.5362354518,0.1214030154,0.1651885673,0.545679883,0.104560751,0.306308209,0.1649387144,0.875656955,0.427507341,0.2603689258,-0.1894378135,0.4802888193,0.4984758582,-0.1592039588,-0.0620175953,0.2807133971,-0.1416363839,-0.2006068644,0.0303511915,0.0059393941,0.0197427626,0.0041590339,-0.2120939309,-0.334476584,-0.0112058347,0.304012481,0.0524360397,0.1176723805,0.8201996752,-0.1468920411,-0.0581757609,1.0254806026,0.4711919808,0.3363845507,0.4118238346,0.1052477338,-0.1293054166,-0.0303229794,0.2787477411,-0.08334863,0.0847549221,0.6995545989,1.1954306352,0.2598267442,-0.7898648767,-0.0978461702,-0.0768790745,-0.01806072,0.190346392,0.1772910362,0.2073372825,0.1418733157,-0.0737718479,0.1802118848,0.5268297683,-1.1205281333,0.0497467926,-0.0631422094,0.5136515812,0.388962235,0.2044939148,-0.2532921035,0.2011938257,0.3629645505,0.1230954528,0.2002437731,0.0814269706,0.4478021428,0.1903706856,0.139292044,0.2697624788,0.4111301698,0.3716671723,0.1002540917,0.0667721047,0.19089686,0.3584038742,0.0913963041,-7.5347358946,25.3883214842,-1.0857426289,4.9076578182,-0.6738898314,3.3869216059,2.4447113158,1.1707349172,-2.7223355969,-4.4279901173,-3.3503227511,-3.3355199038,-2.9375085721,0.0771080039,3.5032667035,-0.1893544686,0.3150032556,0.0080122904,-0.8197913421,0.0814433131,-0.1791573972,0.0830563835,0.0787386827,0.3127631716,0.3182718987,-0.0111336699,-0.230366454,0.1209629497,0.0093449607,0.2919768884,-0.1321259895,0.0188796084,0.388421783,-0.4282710369,-0.1138084357,-0.8292421553,0.6856570143,1.7357170748,-0.8221994622,-0.6822970177,-0.3436185015,-0.2318496054,0.6140483886,0.2232541241,-0.4452480555,0.5343710201,0.2409602709,0.0611815627,0.0355931289,0.1225561829,0.1078208653,-0.1094549674,0.131794549,0.1101913868,0.3497342934,0.38947032,0.0522494647,0.1714325421,0.1300032117,0.030769959,-0.0700467252,-0.7601584968,0.3048334166,-0.2480099379,0.4620376936,0.503748606,0.0225201748,-0.0972823013,1.3940929274,-0.8893607556,0.0389983158,-0.0270974212,-0.0098461747,0.3110063488,-0.1704453273,0.3552633397,0.1114807368,-0.0043592452,0.1053653636,0.2686056403,1.6461393071,0.3243574211,1.0135810152,0.3176167233,0.2377289169,0.1272947281,0.3921432318,0.5673697028,0.2374911907,0.0274083346,0.3346513346,0.0243215544,0.3426713499,0.1368095177,0.3949238272,-0.1347764919,1.3761483945,0.7308685299,0.5680923853,0.2073156334,0.2316590886,-0.6749860212,0.7856127565,4.1458372285,0.2567375989,2.4701591358,-0.5814141987,-2.0437825142,-1.2955734173,0.0967826705,-1.2109754405,-0.6570075895,0.9850850539,1.3884593678,-0.3629043644,-0.5799273143,-0.1530477556,-0.7995878706,-0.3850351896,-0.3992630443,-0.4228541748,-0.4884759337,-0.4534618446,-0.5535087726
   -0.2753482554,0.5801204172,-0.1417602769,-0.3677193919,0.9374544341,1.1599098929,0.4650188131,-0.400709532,0.3583095996,0.2859328834,0.3327272521,-0.2199186287,-1.2081980651,0.395049067,-0.0767345975,-0.015551117,0.6318321464,0.5791723362,0.4206340046,0.1054040148,-0.0826616388,0.2026774786,0.1250592381,-0.2001059307,0.1964723017,0.0800482664,0.2355688616,0.174007398,-0.0286374567,-0.0071710605,0.2785058944,0.1934370001,0.0600085341,0.3409371541,0.0075450377,0.0878379654,0.0339131179,0.5997467501,-0.4019478803,0.0072756742,0.3662043105,0.1092972486,0.0072202837,0.0717242645,0.2334692343,-0.2791917226,0.1106560503,-0.1035058618,0.155789045,0.3106361813,0.2387239677,0.0944236374,1.2046662497,0.393146195,0.6255813914,0.3491984122,0.7239445898,-0.2673338152,0.6925794657,0.6601695448,0.749461712,0.4923637476,-0.4979217722,-1.1802293347,-0.5006363373,0.9304599105,0.8952332568,-0.162914553,0.268152361,0.3195875192,0.2115934169,0.2447066413,0.2186124487,-0.0861429568,-0.0295551613,0.2547793401,0.2709623987,0.2481072594,0.1824412604,0.0045088767,0.0395323561,0.1905231545,-0.1039945055,-0.0455709175,0.1891600835,0.1631766138,0.0628972116,0.3375807651,0.1558584315,0.3946518567,0.1179275968,0.2261979271,0.4563896366,0.0922968264,0.3570988861,0.202834795,0.1675441219,0.1452295079,0.2421806523,-0.2843440165,0.6837736916,0.0032600737,0.299556312,-0.0076449909,0.0428062948,0.2434437287,0.3832065872,0.3731352603,0.272344679,0.3325175052,0.0307694843,0.1523669505,0.1755983091,0.1943880489,0.4394132564,0.0904431633,0.1783789625,0.240927543,0.3279331741,0.2534408151,0.1062342319,0.3740349915,0.1389250174,0.1594646168,0.3331492924,0.4256042889,0.0870158248,0.3501960346,0.0219053403,0.3655364129,0.2351164357,0.1320101677,0.0699036004,0.0141708645,0.2355974723,0.1821768576,0.3538900477,0.4265048971,0.0538100693,0.0927744436,0.351151662,0.3178641116,-0.0224100719,0.2382165898,0.491403254,0.1487366158,0.2884112189,-0.177376679,0.3375862586,0.3983164761,0.1626044624,0.3889717195,0.2425877054,-0.0089554102,0.1839062784,0.1635315406,-0.0166375371,0.1310675787,0.1423238203,0.3888222,0.2810009238,0.1355329148,0.3128638509,-0.236670972,0.0714099297,0.1973862387,0.3448794806,0.406105916,0.2298327699,0.1914423601,0.2920028974,0.1404547412,0.2046962588,0.2253356177,0.1833537793,0.3013824567,0.1909910164,0.2110371604,0.0135774468,0.0190873566,0.3410433695,0.0480048231,0.2066940742,0.368909765,0.12496471,-0.0138426989,0.1242753173,0.2559145089,0.2882335856,0.0191253492,0.2766978568,0.0072534815,0.3432077226,0.3211742283,0.2814923575,0.2038450551,0.4352357229,0.1358180302,0.0533318311,0.0535330362,0.061343858,0.1517737547,0.1130489596,0.2639438164,0.0288026704,0.0504297089,0.290832019,0.2565216667,0.1856647973,0.2944241545,0.1894564749,0.232878698,0.2529277996,-0.7666614909,0.2100848829,0.0226785249,0.1089904573,0.1235351412,0.0098585055,0.131161885,0.1508761166,-0.0063045071,0.0517554101,0.1641323414,0.7411961361,0.1419351421,-0.3411223815,-0.0923106568,0.0548901227,0.0988677118,0.2442772337,0.3429333332,0.2605146636,0.2198179691,-0.1422707389,0.4286958475,0.3364263001,0.2477109694,0.2885353097,0.2234946243,0.3865002798,0.367820341,0.4404435226,0.0335658479,0.2492838173,0.5104851662,0.2603094848,0.3249419917,0.1296900228,0.3836877259,0.2646048662,0.6008750673,0.5459029497,0.5539999697,0.4187112086,1.0512861936,0.6399257506,-0.2415848116,-0.1497404035,-0.191651017,1.3507863409,-2.2186166637,2.0877862813,0.7516651331,-0.7564775258,0.3697579494,-2.4344429446,-0.1628286101,0.090973499,0.4474060603,1.1100003318,0.7605429873,0.2118551007,0.2898430129,-1.924496745,0.1450253273,-0.0701789393,-5.4348922631,2.0977258254,-0.6518127135,0.0003485762,0.4360623257,-0.6354401902,-0.4587329428,-1.9505094248,-0.2272945846,-0.8093409303,-0.004609866,-1.4157740304,0.0794005389,1.4247203001,1.4599561085,0.961616747,0.3002966191,-0.001420741,-0.69189419,0.6971331041,0.3464856534,1.8618066216,1.4385236143,0.4581715892,1.6869206059,0.0892880298,-0.1842212072,-0.8247512911,0.3149438356,1.9023256989,-0.333826754,-0.2126556223,-0.0417201761,-0.07463056,-0.0754400713,-0.0221952952,0.1416514768,-0.0380970066,0.1836831574,0.3530206636,0.2592569096,0.1623371224,0.1532579476,0.2401802853,0.35204763,0.3657749643,-0.7533429375,-0.2457064456,0.0294880955,-0.3648363942,-0.2726188013,0.0319554576,-0.2086913493,-0.3615272195,-0.1628042616,-0.1839810698,-0.0581624429,-0.0525450454,-0.0158868131,-0.1239173158,0.0268243051,1.7735782316,0.184920108,0.2145475078,-0.067379658,-0.2239827387,-0.05554452,-0.1231935159,0.2245149903,0.1789640081,0.126910302,0.0260862668,0.1681831828,-0.1314474641,0.1387698712,0.0841544684,-0.1435404755,0.2695855391,0.0178015323,1.8336665658,-0.6641896034,-1.505412115,-2.4199419768,-3.5444021011,-0.5928324398,0.1425494109,0.3937261912,0.0043812585,0.3242628139,-1.5940273289,-0.4585226839,-1.4173579432,2.4362855357,3.1840208964,-0.2042193786
##end
biasActivation=1,1,1,1
[BASIC:ACTIVATION]
"ActivationTANH"
"ActivationTANH"
"ActivationTANH"
"ActivationTANH"
