encog,BasicNetwork,java,3.1.0,1,1386192339755
[BASIC]
[BASIC:PARAMS]
[BASIC:NETWORK]
beginTraining=0
connectionLimit=0
contextTargetOffset=0,0,0,0
contextTargetSize=0,0,0,0
endTraining=3
hasContext=f
inputCount=15
layerCounts=2,42,42,16
layerFeedCounts=1,41,41,15
layerContextCount=0,0,0,0
layerIndex=0,2,44,86
output=0.3372052938,1,-1,0.9966022951,-1,1,-0.9424443402,-1,1,0.6277397121,0.9996948739,0.6508490532,-1,-0.9999995366,0.9992894917,0.2953760841,1,0.8781136024,0.8843731131,0.9820757234,-1,0.9696595072,1,0.9884778639,0.9317592381,0.9999993009,0.9773555103,-0.9786119094,0.9990140906,-0.9999924942,1,0.9969599638,1,0.993270958,0.9674215548,-0.3810022103,0.9999999996,1,-1,-0.2463025066,0.9999538674,-0.9999999866,0.9712967429,1,0.1698512244,0.9999853482,0.7708687575,-0.0900829785,1,0.98136623,0.612555436,1,0.8182613095,0.1055532544,0.8913520212,0.7334635125,0.0615842103,0.7576693373,-0.1719254799,-0.9934371349,1,0.8326908934,0.79889072,0.1197322732,0.995993531,0.9892908828,0.8904036771,-0.0448377615,0.8110463143,0.0821253579,0.2176930479,0.0408493567,0.95972667,0.2010791176,0.9905799147,0.4900396387,0.7884146888,0.9539388399,-0.9358176062,0.579638817,0.8318536453,-0.1343457405,0.3597303431,1,-0.157442059,1,0.362249713,0.3520469328,0.3469455427,0.3418441525,0.3443948476,0.3341920673,0.3367427624,0.3392934575,0.3392934575,0.3469455427,0.3341920673,0.3239892871,0.3086851167,0.2959316414,0.3418441525,1
outputCount=1
weightIndex=0,42,1764,2420
weights=-0.0809920158,-0.0555466483,-0.0665423532,-0.0532487554,0.1723485379,0.2914068897,0.0703480182,0.1273990246,-0.0495715715,0.0551927202,0.1309738635,-0.0974264662,0.0987587318,-0.0866744052,0.0783631511,-0.1254323807,0.0938934915,0.1502106722,0.0267522552,0.1407002598,0.0818340816,0.1079484637,0.1744699557,0.0552147241,0.0890694846,-0.1704941664,-0.0772622244,0.1645189614,-0.0248816785,-0.0608741974,-0.0925674129,0.1378051941,0.1594602709,0.2634359364,0.1743201085,-0.0522875416,-0.0154523137,0.1879178032,0.0425999302,0.066182149,0.08616871,-0.3012967718,-2.2404938575,-0.2065436704,-0.1394108268,-23.0821991211,0.0987607471,0.1419417882,-9.4090310429,0.3312027456,-0.1235532791,1.1083627909,-0.1647406781,-1.5545365445,5.4732511021,0.0429670578,40.5749220175,0.1885859378,-0.0990200762,-0.0456259701,0.0082804595,-1.6410829078,0.025943845,-0.2205954646,0.1232988955,-12.3071646512,0.0926322324,28.878504597,1.8662930766,0.9755606703,0.0725387887,-2.6866925058,0.0957574916,-11.4732188162,0.0195539909,-0.2068255981,0.1168221266,0.7210718958,0.1847567173,47.3689327018,-0.648192106,-0.0097462863,-26.4475510793,-0.0319580955,-0.7513770461,-0.4466948948,0.2365048086,0.2460249457,0.2159130743,0.3623424564,0.3424822084,0.4087356037,0.2544292156,0.5809731604,0.1738744657,1.5129956896,0.8132561146,0.0554391913,0.7987659125,1.8862389174,0.0369161891,0.2438100073,0.0343396873,-6.7750921847,0.1297354577,0.5099840226,0.0997577281,-0.2590935382,0.7975848675,-1.8028115965,3.869855909,-2.2207177243,0.2926366912,-2.5594338374,0.0846500677,0.0606421918,0.2765024254,0.1965638961,0.1224518348,-1.830723759,1.3765219206,1.0145984539,2.5748947055,0.2753374963,0.0920540031,0.0507593384,-0.2174384361,-0.7567152565,-1.5591884347,0.820456804,-1.7169154271,-1.1497823292,-0.8295033539,-1.5764018864,-0.971505702,0.9335919152,-0.9236230753,0.1336002613,0.4003304327,-1.0230309762,0.716413874,0.5615805429,-1.4738845324,-1.0357510729,-1.1488273462,-0.6271024388,-1.0448742578,-1.3608749611,-0.7185607259,1.5311015431,-0.5683765284,0.8541517573,0.810258621,4.017365273,-0.9008782111,0.4914654852,-0.838515177,-0.8874763959,-1.0104934188,-1.0536764476,0.9499009367,-0.8643520136,-1.3591269719,0.6363947036,-0.5173724089,-1.106438347,0.9377905875,-1.4907967569,-3.0017796944,-0.1607412844,0.0051749616,0.0861104209,0.1285126686,0.3042849821,2.3236724766,0.094631479,0.0644479837,0.3591943352,0.2929455872,7.751911516,0.3336900556,0.1026854221,0.3053135055,2.1124071995,0.1384084766,0.2244998142,0.1440820408,-3.6529033165,0.2506568684,1.0125313556,0.0707037255,1.0635840196,3.747704724,0.8951462443,-0.2316775128,5.8911443987,0.2431328471,0.1593290268,0.1685434804,0.0307554915,0.1075363907,0.1606465133,0.1587267089,0.9085038192,1.7780271585,0.2408718817,-0.3006586085,0.3426750822,-25.6294548325,0.0333299119,3.9570778945,0.7986347148,0.1875705065,-2.6146327814,-0.0991103639,-0.1445379771,0.0482826404,-0.1150084409,0.0334499986,3.1258658506,-0.0482747286,-0.7540439397,0.8389336927,0.1348229584,-4.4687657358,1.3200637279,-0.1535017425,0.0281913446,0.1467527648,-1.5763752343,0.2075502184,0.116884876,0.0756125193,2.2878605583,-0.1510621267,4.1344184827,1.9569895535,-0.4253775023,0.1165532366,-0.4559047349,0.1823947524,-3.3966138877,-0.142208828,-0.1333316088,0.2644832133,1.1650178947,-0.2797546002,-1.9419944123,-2.3999837537,-0.0948205736,4.0227085261,-0.528649432,-5.3882732064,-0.3440248588,0.0637614532,2.7190686163,-0.2131738553,-0.4206873201,2.6011907261,-1.1698986586,0.1161800618,0.447811282,0.2266954101,0.2402373637,0.1961793128,0.1415271419,33.5322062378,0.878242776,-0.4586020298,0.0654984619,0.152672705,0.570114506,-0.0341220576,-1.1469172283,0.1279483243,-20.552934287,-1.1885372287,19.2250438647,1.9688404292,6.6873725209,-0.2339959734,0.4688951757,-0.0530087643,-18.4751404391,-0.2662463921,-0.2064265566,0.1443522008,-4.4228898419,-1.108175618,-5.9993966635,1.5141242136,-0.2532628088,0.1203394408,-0.8247583558,-22.5173075692,0.3618655,0.1797283728,18.8181955391,0.4389717589,0.3735010813,0.8068815365,0.1796077626,0.0881804742,-0.0827616032,0.3570382334,1.118899335,-8.0440852285,0.0317327254,23.1331322749,0.2209834608,0.2036108966,0.3238250372,0.2211170687,39.1363684296,0.2001091714,1.5648496941,0.0607140148,-4.5011499369,-0.03465745,-3.8592681735,2.4525332698,0.4587095159,0.1788374924,0.2310520223,0.3896977388,-3.0134308797,0.3438157808,0.2648551319,-0.0782204313,-4.0152266333,0.0301061775,-47.5762244261,1.8895465925,0.3454504468,-42.9101552438,0.4150318831,0.3367315869,0.0259537315,-0.0762649226,0.3791194031,0.0305721369,0.2357027327,0.1127874151,-0.048724015,-0.0646888869,0.9077993535,-0.0361545274,1.1709162189,0.3461586564,-0.1099445209,0.4873968037,0.3030409294,-0.0745893635,0.2480865732,0.0298527756,-1.1316042649,-0.0361701629,-0.0300135973,0.2285125645,0.4757376973,0.2771723949,0.633346696,-1.6265969568,1.8103491373,-0.0272975862,-0.174512539,0.0883281587,0.1935870369,0.0742278929,0.070277087,0.0682331044,-0.0039191542,0.0573043924,0.3436415287,0.1061787538,-0.0642717633,1.1363453963,-0.0678929794,-5.2784402412,0.8102572255,0.2734533072,0.2622875604,0.0259486687,0.1348525885,1.9525918074,0.4183492606,0.236369895,0.4072420975,0.0255581716,-0.4126659235,6.3211568738,0.2026309685,0.0972220711,1.5351411733,0.3177166295,0.0544794814,0.2898049163,3.7818637675,0.0757460175,0.4394917696,0.1698436943,0.6898374767,0.3732071906,0.7863028173,1.624360141,5.4180728458,0.1241371867,-6.2204409898,0.04610269,0.2105520034,-0.1727706097,0.12143193,0.1146419568,0.8477319504,-1.8795195638,0.3189057395,0.0779663656,0.3661109699,-17.6514998943,-0.0051782446,-1.158343123,0.3352781171,0.3306759464,1.6798372842,0.155433012,0.1917434935,0.4383316669,0.0362322851,0.1662447904,-0.5234920223,0.3530436252,-0.7259425726,0.0884562296,0.3029383234,0.2435811222,1.6356669788,0.3064370927,0.1478595586,0.2917856013,0.917756558,0.0256452643,0.135513635,0.2139136812,0.6308238129,-0.1073266296,-4.4976808521,-3.2864099095,-0.1406880453,0.0191297941,7.2685237596,0.0812631037,-0.0070767575,0.1340298957,-0.0090673509,0.1649202907,0.0276886755,-0.7774944381,0.1345664938,1.5611576961,0.4798900619,2.2188341728,-0.0045747214,-28.2730071001,-0.1967329099,-0.2278178664,15.6063562285,0.0102657321,-0.0805548919,-2.6743148844,-0.0067945051,-0.1186159989,0.0026076562,-0.0004058148,-0.284427174,0.073943244,0.0702518467,65.5085081393,-1.4191659655,0.1349777353,-0.1118044722,0.0849798637,11.2370030323,-0.0906116507,-0.0450242802,-0.0621790833,17.0570308551,-0.0448675608,-0.6420054179,0.0509334511,4.0882610232,-0.1603992024,-2.0676527163,-0.0567619753,-5.3780997635,-0.1781234523,-0.1152061982,0.234871192,3.2711563083,-0.1117402248,-22.4203498562,-0.0952645476,-0.0883659466,-6.6645038094,-0.2826196661,-8.6321759758,-0.8180119526,-0.0383147045,-8.3110147957,-1.4998090141,0.2441761353,1.1320951995,-1.9400729747,-0.0667171392,1.6446160032,0.109970372,1.4978721295,0.2739361937,0.0289765626,16.2167368752,-1.9024530181,-2.0098304099,-0.0360800405,-0.0563714191,12.0358141613,0.1424954309,-0.5838014982,0.0143401008,-2.0070500894,-0.2811658,3.4988019116,2.5490005547,-1.7061931502,-0.114153483,1.2569623718,0.0748760451,-0.5487325234,0.1900816247,-0.105371361,0.6081971618,3.7142913209,-0.5714474161,0.2436939002,0.2647903586,-1.4042768757,8.119682966,-2.0773527936,5.0227067992,0.341912809,0.2904204097,0.3957671993,0.0131238341,0.1630903472,0.1261491805,-0.0874917736,0.0411940603,-0.7602551501,0.0455008556,-2.3749344218,-0.4746764347,0.1831013884,1.1941514685,0.9446801262,0.0650323208,0.3558676716,0.3045719997,-1.4549650928,0.1286432437,0.3116187669,0.203065549,-7.1404730745,-0.068486994,0.0231874024,1.491017465,3.2788588135,0.322957101,-1.6377561764,0.1946400401,0.0922729426,0.3174713271,0.3100288999,0.0309351557,1.5019956037,-0.1908344349,4.6251906421,3.7549762045,1.7291674274,2.0791952469,-0.1444217879,1.551869178,0.3697451469,0.1885067393,-0.1618798867,0.0837178533,0.3160222436,0.1914641171,0.0889095182,0.0130094722,-1.4793944332,-0.0291417149,-2.1834008258,-1.671985825,0.2325073814,-0.4959506638,0.8789639961,0.0178250387,0.0684879772,0.008157316,-2.2384903651,0.3454778876,0.9588508888,0.1977505032,13.2184095027,-0.0382238228,-1.4018357038,-6.059537705,13.2642822701,0.0784358139,1.5698099993,0.0748313378,-0.3467581372,-0.0678865492,0.230371257,0.2084195942,0.3469394744,0.2902570958,-1.2775827569,0.0547781177,0.0530251908,-4.0402813036,0.0434721987,1.2786963603,-2.0526729438,0.0731749878,0.2077170179,0.1140761494,0.3153490698,-1.7612167674,-0.1558321404,0.0242425238,0.1118414064,0.3426266051,4.5534887609,-0.0758564409,0.3692573175,0.0871508498,3.503425372,0.0673919853,0.0405207661,0.1271804204,-5.4082191853,0.2150563105,8.6708396183,0.3783638838,-0.4123242283,-11.2624055509,0.0391505017,0.1669316344,0.0015891795,0.0516649629,0.301589117,0.5706563198,0.5809768325,0.1648227168,0.2136258875,0.0800869094,4.116614463,8.1930658012,0.0005024701,12.8350349192,-0.0355486734,-15.6096956288,0.2611574308,-0.4335910616,0.0913578483,-0.0521852535,1.0607620547,0.2042256789,-0.0010908453,1.6558881026,0.0660789507,0.0925376318,-13.0088952935,0.175572414,1.4671773027,4.5166675883,-0.1174042347,0.3473415307,1.4223817871,0.0354609348,0.1024101025,-0.0838065199,-7.8735213977,0.1097012875,0.2170951171,-0.0929534681,5.3133531837,0.0456679535,2.8311348785,12.4141500384,6.9595481516,0.1941388295,-0.061836545,0.0281058189,-0.0711031465,-0.0820928745,-0.0758674397,0.2778732126,0.7058105488,0.2989226087,0.344928078,-0.7714489383,0.0505641215,6.5102211438,0.0506753767,2.047351132,0.0820523105,-0.0678768042,2.3431751225,-0.1516817544,-0.0624303305,0.9620668321,-0.0374579519,0.0558255404,-62.9967372886,-0.1467159813,-0.0516496116,54.8683354897,-0.1417382275,-4.8812147227,0.1921427253,0.2092959457,0.2752079511,-0.1636192625,-4.5589980213,0.1430602266,0.1246245697,-0.2550437354,19.1006007285,0.1518822866,19.4617694416,-6.0252459657,34.4914184553,-0.2063663001,-2.1915253223,0.1570517877,4.0751781614,0.2605348076,0.1563619515,0.304054048,1.8058157761,0.2862644099,-0.190673114,3.187955659,-0.0288088608,2.7036762389,-0.6068756135,0.0136958286,0.0187431195,0.0749910836,0.1328438471,0.090512211,0.0450138284,-0.0066637512,0.2953457826,0.1512708944,0.4007132666,0.1180133548,0.2120507486,0.367245279,0.1411828511,0.4625847552,0.2637419025,0.0017527484,0.0135495099,0.211078269,0.2336882431,0.021448711,0.1364180242,0.1598400976,0.1479875664,-0.057680025,0.2902535944,0.4628508376,0.258515966,0.0408606566,0.1827086587,-0.1085606521,-0.0535280615,0.2330051262,0.1316455405,-0.0043378441,0.2313345046,0.2162312337,0.1988963557,0.0675690447,0.0880594283,-1.35932257,0.1859864538,-73.1384008399,0.5817342691,0.4709243709,23.2782367776,18.0668894878,17.8602283129,0.5756208858,17.5240996121,0.4586135196,-1.6702508985,0.0577699,0.7479487027,0.5141907651,0.4730875877,10.4815846965,-4.3681756571,18.1971672533,0.2223180776,0.3096807786,1.4515883315,2.4038365312,0.7661621696,0.3866997628,64.1732815232,-0.4580505763,1.4593415462,124.2566888121,-0.2436270371,2.1376001671,1.9473786953,0.225634824,-1773.5116505789,2.189423061,2.4953199951,0.0820084623,27.6706090345,1.6864473069,198.0330052238,234.6834924258,18.3026463307,-164.7911614084,17.6707632803,0.1645884977,0.2714369367,0.2308145634,0.1566985856,0.1188139762,0.1618348835,-0.0551228965,-0.0124934132,0.2519035306,0.3532176049,0.2471803857,-0.0755483227,0.1288110882,0.0004705839,0.1797264877,0.1470440254,-0.0564552558,0.0929201481,0.0945629752,-0.1153555911,0.1439081897,-0.1004482699,0.1931991615,0.1473534015,0.116505363,0.2901071516,0.1961214963,0.3104753154,-0.0302262182,0.3276321461,0.091905381,0.1242738097,-0.0296211141,0.1181988884,0.0495355076,0.1461378728,-0.0992616335,0.2123080568,0.4710879185,0.1574725799,-0.4561630307,0.0824151846,-3.0663067887,0.287442932,0.0353385124,0.0382954376,0.3148671439,0.1649425153,1.8694382842,-0.0190522828,0.4064107594,4.2014109529,0.2574650608,-3.4893271205,-7.8161545935,0.2693880599,0.2698149763,-2.0223018936,0.0156337551,0.1074013012,0.2548591551,3.4300890813,0.1382875302,-0.3111447606,0.2071932968,-12.286199144,-0.3583023683,-4.3088108084,18.8288723074,12.9713333986,0.178263648,0.7610142563,0.2099199937,0.300369881,0.058253524,0.0702723733,0.0278361868,5.750601268,-0.5152882363,-2.0050087473,0.0260360997,0.3497495888,-14.8533938627,-0.1599269463,-1.8544971717,0.3321688359,0.2144475695,0.3374682359,0.5998969433,0.2875588178,2.4599130004,0.317851925,0.1417305073,3.9273548436,0.0274748144,2.5262157425,-4.3883867619,0.3166516083,0.0981261243,1.0630385721,0.6464873672,0.2992080935,0.2051105112,-2.7906659283,0.3484033261,0.2103703872,0.2185123331,-0.3186193446,0.0925474471,3.8987341885,-1.593610506,1.2276262398,0.3493603099,-6.5426279882,0.0385511088,0.3463903411,0.3064045104,0.3486289326,-0.1414647105,-0.7862852055,-4.7899736836,1.4486100995,0.5567043282,-0.0008101106,-5.134907516,0.516983261,0.2355476968,0.1214157963,0.103915734,0.376006163,0.1317498867,0.1328447837,0.1874561075,0.2561145249,0.0570810325,0.3453779851,0.2321104446,-0.0041240554,0.2013549999,0.0102041883,0.2124852496,0.2891953418,0.0076142483,-0.0027672181,0.2489119046,-0.2278132781,-0.0184718554,-0.120899553,-0.0875716077,0.1562688625,0.0684378678,0.4734450229,0.194699561,-0.0145890723,0.1851609309,0.1007554366,0.1396451972,0.0417870947,0.089354519,0.2576715741,0.0742331235,-0.1021617311,0.0775460812,0.3426965203,0.3788566084,-0.068168468,-1.4769535281,-0.1060138041,-6.0919005262,1.2397969244,0.1536613825,0.1475207106,0.2361473939,0.2540760828,2.2119533173,-0.1550803692,0.1485662669,-0.1787101916,0.1123270943,4.6636684078,0.1512657541,0.0611116047,0.1886911476,1.4233980259,0.2257639001,0.0142295159,0.3230514923,-3.4239715159,0.1295584331,-1.1370393297,-0.0239005979,-0.0402304342,-0.5570638623,1.3077284633,-0.8301573258,0.6218729353,0.0972230694,1.202259523,0.1136826685,0.1505172356,0.4957994332,0.1130498961,0.119047485,0.2913296664,-0.3847092678,-1.7627237754,-0.0504809713,-0.0113533471,-21.7985337497,0.2375007024,0.2142811483,0.0247123816,0.0783018315,0.2562217361,0.1291966274,0.1911093923,0.2086195346,-0.3360439364,-0.0399056088,0.240341645,0.0724032061,0.8543679976,0.1587013147,0.2170126139,0.3455795782,0.4167245266,0.0302292947,0.002018261,0.0867986071,-0.0521988125,0.0629061614,0.1083800295,0.2836711344,-0.0345401987,-0.133011808,0.1769452015,0.3584953109,0.4521975237,0.2198306292,0.5081990208,0.2871172111,0.0716135419,0.2265300031,-0.0268175523,0.2375810264,0.2144232715,-0.1158539114,0.2688255622,0.1777001446,-0.0114052325,-2.9936669337,0.0420497124,2.9353104965,0.2143147286,0.0845315012,-1.7808977411,-0.0938123285,-0.1938442381,0.0375935905,0.2198555324,-0.0809393075,0.4880097182,0.1387106283,1.9855065623,3.2887755444,0.1612350969,2.6554003332,2.3873757741,-0.1847130577,-0.0303817087,0.0170196646,-1.7501397382,0.0855861094,0.0671485267,0.1180341964,-2.3810744438,0.1708451941,5.238050672,-4.4105225929,-1.6707887195,-0.1264621577,0.1052616051,-0.063464714,0.9846976409,-0.0579855756,-0.0189185026,0.2516006517,-1.2390316571,0.5828487295,0.1149019374,-2.0511185113,0.0161300873,2.7764852594,-0.3331816015,2.4340031819,0.0485337092,0.1163569986,0.2158842555,0.1617780951,0.0497803568,-1.4272454032,0.2978383975,0.0296111852,0.2518102852,0.025850183,1.5560733028,2.4232806586,0.1003529044,0.1362733609,0.3488262004,0.1990712188,0.1308700991,0.1767963165,-4.4983714413,0.2952360748,-0.0036666995,0.1736236709,2.0177967708,0.4530679388,-4.8925269817,-0.1524989843,3.2792766512,0.1988365883,1.7842547841,0.0138311132,-0.0090994749,0.0057488981,-0.0141396642,-0.1986056333,1.3276326432,-0.0789649607,0.0148712596,0.4748567245,0.1176579175,-4.9695045786,-0.2697300414,5.7041647659,-0.1766215631,0.0277351631,-3.4025194722,-0.072641177,0.0861428526,-0.2650089663,0.0136587387,-0.2171499883,-5.1587053475,0.0438780336,-0.2030321244,4.3646829893,-0.065151746,15.6058617953,1.4440093355,-0.1010162203,-0.1361628619,0.1567722827,3.8019817107,0.1552617586,-0.4156624837,0.0076503171,0.8531734974,-0.3199167707,-0.9667225032,0.1259061674,1.105269467,-0.0941902728,0.2818964077,0.1520318184,1.9795381124,0.0229383715,-0.0127605873,0.4293031628,-1.6282003365,-0.0756446969,6.8271050822,-0.7324378059,0.0695690488,2.6736016985,-0.4638021073,27.7720727954,11.6938466695,0.3494901783,0.0459913046,0.1675184066,0.0969936407,-3.6877040348,0.2219490987,0.1530127557,-0.8432302943,0.1581619166,286.9424637023,0.4898164965,0.0557871488,0.3004815034,-7.4000060174,0.1342321615,0.3080902175,0.0283692492,-4.3996711492,0.296498256,-4.0807424233,0.109986132,0.4143798784,7.0563360083,-1.8291187082,0.8041569918,9.0118244679,0.1151647966,2.4768733918,0.0600857242,-0.3704804572,0.1933381751,0.0048446815,0.2169809494,1.3836023145,3.0188868967,0.3249969206,15.4075243269,0.5315095402,143.0964791053,0.083313386,1.4188006144,0.5349504105,0.2867187655,0.3339061451,0.1587095561,0.2756781938,1.332423725,0.2804077385,0.0262514655,0.2923489348,0.0000429761,-0.8416899589,0.988099473,0.1209651478,0.3197569591,2.2580623085,0.033615051,0.1700628596,0.1677524562,-1.3300667315,-0.026169667,0.035413183,-0.0005509461,-2.44108563,0.5111002314,4.9080865975,0.675258897,7.7152794392,0.2304500475,0.3901543775,0.0068574475,0.1275441015,0.1827853699,0.1774825306,0.1363335648,0.3911675161,0.4129181594,0.216766266,0.0139182687,0.2956227729,-2.1010034206,0.1867733609,-12.2616714415,0.1815740312,0.2633476518,6.7355716769,0.1724208921,0.3555238671,0.5554013366,0.0718120513,0.0600665119,-21.9176771836,0.2678940461,7.7898391662,-17.9064061481,0.0493497195,7.725532111,-2.91211265,0.1504271847,0.0171225779,0.3046709701,-5.6397185938,0.1396861073,0.1230439121,-0.0117167132,5.224967565,0.5741105625,11.3169091238,0.3529118718,4.2376896493,0.0195584871,-2.7422143785,0.0377259977,-0.3848303052,0.3293350473,0.152540497,0.0115341233,5.2978794038,1.3493505915,-14.4093705691,-0.3932655093,-0.2556547883,-26.8368050344,0.1342517217,0.4800630288,0.256372164,-0.0239881553,0.2295692675,0.2144903374,0.2527314949,0.1088427442,0.138113329,-0.0323465763,0.3620905003,0.0598073432,-1.0933844349,0.3386496284,0.1159924103,0.4012006359,0.0788077763,0.2122404777,0.151686231,0.2197503762,0.1577936635,-0.0784708797,0.3105981006,0.0840415175,0.1705021997,0.1571521785,0.1553192279,0.2288346368,-0.068585147,0.0720515428,0.4060145035,0.1307643596,0.0455968625,0.1554022435,0.1016145757,-0.0100525343,0.2349700141,0.3779443813,0.1593287866,0.3998548904,0.1202172305,-1.1132695308,0.2383635729,1.2556287585,-0.0442424633,0.2267670315,0.4050576284,0.2119633073,0.0905169009,0.2636849509,0.0063032018,0.1460196279,0.2744040196,0.1865266116,0.4389534289,0.2342058396,0.1658649649,0.3938414917,-0.1339285107,0.2357990161,0.2167153021,0.0938889361,-1.7567298243,0.2083328358,0.2805232922,0.0605511091,-0.1394392301,-0.1600647217,0.1802114823,0.3890535047,-0.0517924444,0.1971402667,0.4417796212,0.0345142029,0.1347727801,-0.0935477029,0.1823589327,0.2306488972,0.1526478926,-0.2127297133,0.3987602358,-0.086792387,-0.0514015637,2.4810287943,-0.0086492389,-0.2853417093,0.0019481108,0.1795842175,0.6120762896,0.0103727489,-0.0161219438,0.1664974789,-0.2465899772,0.3098669136,-0.0407426512,-0.0036714002,0.166645242,0.0263950492,0.0090651517,0.4532738135,0.3612926169,-0.0267363339,0.2029316459,0.0499661194,-0.9420021531,0.2987412639,-0.1907925802,0.2720102555,-0.0669209464,-0.3818916029,0.2753836321,-0.079741901,0.1177381233,0.2259560229,-0.1117861586,0.0163927893,-0.3085197565,0.0548063283,0.302421746,-0.066657085,-0.1978502714,-0.3604140192,-0.4483745638,-0.3147930817,-0.0611971474,-0.6163125025,-0.3733641179,4.1915541814,0.0009279329,0.3280992241,-18.3507174188,0.437007099,-0.0506647616,-3.2178257369,0.4302671301,0.0413586304,5.4249505599,0.0361958671,5.3031163013,-1.1339063871,0.1961490226,38.3974105347,0.925517691,0.1691962422,0.2940236933,0.2403287683,-3.0993447966,0.1863061111,-0.2545752868,0.5855242072,-0.6253700046,0.2297976583,4.4544015805,0.4919118977,0.176200233,-0.0159528319,0.2921071316,-0.0052609762,19.8729042887,0.2917219935,0.1365059728,-0.0228471952,-2.4271339089,0.3468926377,-21.0917357639,-2.3868069206,0.3350494362,2.3018989344,0.2167836581,4.5017960714,2.2145810913,0.4372138489,0.4768116299,0.0346051099,0.1662590645,0.7831017193,0.1771913943,0.2805770592,0.3626165879,0.3617354647,22.8984490275,0.4566179332,0.0959184258,0.4530428456,2.5839836351,0.3397340574,0.0967954024,0.183125445,16.6499377597,0.2268804989,-0.1368664563,0.1931501889,0.8239592982,1.2965251538,0.567310033,2.1153217519,1.8413334404,0.0343361957,-1.9090199909,0.4015354438,0.3223023519,0.3077281124,0.3295956219,0.0778890136,0.0713710336,-2.7475514914,-0.5575386816,11.5399742792,-0.5324661302,6.2220489173,-0.1345314663,7.9249396783,21.5442683965,0.1833711154,-5.0624554855,-0.079824744,-0.0208078991,11.6023589784,-0.7365796843,0.0490896074,-73.9606741951,0.1516183804,-18.0503598366,-63.9623696254,-0.1020971797,-14.8140331845,7.5490335221,-0.6528703272,0.2641643781,-0.0513823316,-20.673132984,0.0298045277,-7.6096390871,0.2495652866,20.3794489109,-3.7429175813,216.759726992,69.2035901459,49.8211103844,0.0391745259,-16.3465939616,0.010073437,9.1807041644,-0.0306772868,-0.0955916364,0.315854036,46.5492862028,5.2386136187,-8.6409821222,23.2912335383,-0.855061412,506.343167934,-0.520655523,-0.112699699,0.2109755873,-0.1309688499,-0.0698094991,0.1602455805,0.2209359687,-0.1116957704,-0.5279526426,-0.0119849439,-0.4857807224,0.2191631354,0.2585466947,0.5839667978,0.1449945646,0.2890387799,0.3254787081,0.1473230084,-0.0420161713,0.1893790671,-0.6828637176,-0.1334586043,0.1876564718,-0.121312647,0.3928236963,-0.4962622407,0.4058490236,0.2496689287,1.4623893573,0.0494725839,0.3775409619,-0.0629058372,0.242671191,0.1109690291,-0.091556885,0.5334927562,-0.0658486081,-0.1249185018,0.241504163,-0.1264891245,0.1281651903,-2.231385986,-0.0202506729,3.0654364503,0.4947319945,0.2109876719,0.0736014732,0.1220819852,0.1362545069,-2.1296477924,-0.2052429368,0.2478241855,0.0311446542,0.3440110959,5.0533384955,0.1543373234,0.3524887692,0.1885633074,-0.1420688557,-0.0166827796,0.2144537303,-0.1537782157,-0.6988020161,-0.0088395068,1.7833326372,0.1456178564,0.0742491763,1.5433892419,-3.9230814821,0.8334038859,-9.4060060664,0.1853474513,0.1770492955,0.0470077543,-0.2036555446,0.0711172104,0.076189415,-0.0065536066,0.1423100005,-2.2478928642,2.8784838549,3.4724309415,-0.1741550679,5.6402313504,-0.0551826299,-1.7394755428,-0.4336441092,0.1911518567,-0.0048766213,0.0451135038,0.1109110096,-0.8866412589,-0.4657430244,-0.1499056963,0.2647990895,0.0144193414,1.5765701166,-0.058063417,-0.0442917722,0.1916945473,-0.4195157062,-0.3698821734,-0.2227256876,0.1259710001,0.5012532746,-0.2330700391,-1.4845202006,-0.0907995426,-1.9096341705,-2.7536774668,-1.6756933332,0.0733839656,-11.0327329678,0.1847123193,-0.000645501,-0.2768159823,-0.3007526787,-0.1216019142,-0.2604152504,0.1951695422,0.0536339547,0.2294728838,0.0806658372,0.1158239196,-1.61835392,12.3974199187,-0.4121843088,0.9429141061,0.2696583949,0.1914462079,0.3395367976,0.2875417218,0.2024915573,-0.0687302629,-0.1193917735,0.2257413285,0.2775834988,0.1340775223,-2.1937562116,0.2961517674,0.2913286086,0.306375511,0.145404175,-0.0111228322,0.3377582345,0.1001376454,0.1370038579,0.1767753398,-0.1824501269,0.0918270015,0.1747761004,-0.0978766101,0.2234042892,2.8462107208,0.1961616733,0.0119322103,0.2046910728,0.0823259091,0.3004188897,0.1809814575,0.0118443428,-0.1464797626,0.0597149363,-0.2547729092,0.0807829199,2.1320806254,0.1395977773,-1.1694079917,-0.0007426718,-0.2742982935,0.3848621872,-4.6057210046,0.0699324529,0.7105991618,-1.0249161227,0.2414372086,-1.1360389276,0.7108851191,0.1148004052,0.3630204874,4.970349983,-0.1868349676,1.8464913149,-1.3515416146,0.0719249464,10.3964373187,-3.7005624006,7.744145673,1.8272886179,3.7092364486,-0.3413689093,-1.7928865524,-3.2628986246,1.1368450889,6.5907797239,8.3377509268,-1.3567230163,1.3541106979,-4.4134479577,-5.8557222506,-1.4446562627,0.2824198706,0.2065674125,0.0246724192,0.1202943518,-0.0967068566,0.0336311751,-0.0204143901,-0.0562324834,0.2911263493,0.158430533,0.1277332293,0.234822266,0.2559150545,0.9286826923,0.0598982853,0.1989642204,0.2402721115,0.0652253069,-0.1034058926,-0.0214349513,-0.0021296863,0.197096848,0.3433080252,-0.1289594179,-0.1532765539,0.0891745702,-0.1225847231,-0.1508028581,0.3407656274,0.2252782834,0.1042267875,-0.3907044498,0.6747433291,0.7327758535,0.4478074085,1.3065846553,0.8714060227,285.3743286359,2.4442810244,0.9016285403,-0.176606819,0.7461059381,-0.1413137795,1.0229738746,1.3529683411,1.1767277038,0.9079030334,-0.4159862998,0.4744151777,-0.6174548734,0.3894500122,0.4771892947,0.2575355636,0.3871507784,0.4938314165,0.3306299022,0.4262632729,0.2071136286,0.3529199857,0.0637150049,0.5034226421,0.1413074059,2.0766655218,0.3218219435,-2.9332187828,0.1503155789,0.1497947603,0.4618907467,1.2397494639,0.344431538,-2.0372148439,1.7025870193,3.8773916442,-1.8608626718,0.3082550968,0.1970170979,0.2771267463,0.0417744279,0.0711606571,0.1200100992,12.3377261301,12.2040964598,12.564177053,12.6175946027,12.4137771745,12.3526050884,12.6317878274,12.2167625511,12.4603630882,32.0820084856,12.4207310395,12.5059939085,12.3879624366,12.5208331652,12.674864843,6.8813160564,0.1794596726,0.0700966405,0.1163042721,0.0781547834,0.1145261027,0.1474707396,0.4318075934,0.4049782732,0.1693759926,0.0071739441,0.2490098381,0.0498234445,0.1250276561,0.1526388072,0.4878191558,0.2133987527,0.1330624309,0.0054902027,0.1711591033,0.0583799473,0.1528650086,-0.0263494049,0.5694828627,0.0506377953,0.3104625116,0.001181184,0.316369006,0.199767665,-0.6255666268,0.2338082285,0.0972124641,-0.4618348885,0.0551472658,0.2649988108,0.2341351348,0.3809127268,0.2063862392,0.3757444638,0.1533634822,0.2053958584,0.0930826226,-0.0064194725,0.2311224463,0.0304384969,0.147067549,0.4039347629,0.6477671974,0.2829441099,0.2229793163,-0.3637174262,0.168268755,0.630705549,0.7654180576,0.5564022026,0.4384970667,1.1730612291,-0.2954920484,-0.2094081312,-0.0510720859,0.0746025793,0.215979694,2.062812765,-0.8129818043,-0.5191518771,0.0867919852,0.190976331,0.3268329293,0.0247010439,0.2529536141,0.3536237512,-0.0937819978,0.3050811373,-0.1071118538,-0.18961976,0.0085402063,0.240612255,-0.2067914027,0.171932107,0.1229680371,-0.4438361016,0.0521373405,0.0922495895,0.0989940058,0.0502282438,0.2171430549,0.368664879,0.1905913448,-0.0197330145,0.0452395688,0.2248505998,-0.2257624236,0.3944593865,0.2219762152,0.0412346419,0.3530608253,0.2852407431,0.0059819934,-0.0723342549,-0.083602264,-0.0328742424,-0.2244447995,-0.1042274082,0.033663551,0.0224198792,-0.136711426,0.1135842348,0.2452440324,0.1885260295,0.1051723584,0.3873140672,0.2298820512,-0.3786507493,0.1011928888,6.109614318,3.6541508354,-5.7613927875,-1.4346444459,-8.3594192233,-1.3106304485,10.3818914055,-4.0455637703,-5.0140146312,1.9369920072,-17.3308986299,7.3745673158,16.7100776977,-10.2348780527,0.2198528616,0.4473086568,0.3092143922,0.3585494982,0.1994678007,0.4272042864,0.2693385921,0.4823499623,0.9076012349,1.1259586491,0.9914621859,0.9623806393,0.472299872,0.1887565591,0.437142956,0.4043090034,17.5810362897,0.0986171046,0.4322499805,0.108298262,0.2426769698,0.1748609909,0.4014363148,0.0744498509,0.0546323232,0.0935258861,0.2927776388,0.0062552751,0.1284525404,-0.0126918484,0.2792028727,0.5174858696,0.2178112589,0.2805640831,0.0219984865,0.0964164609,0.392638141,0.079090557,0.0822850994,0.2048076255,0.1386239588,0.2864153327,0.0105314188,0.0948167281,0.0891019822,0.0644734624,0.2157773098,0.1912194064,0.3372360237,-0.0910982377,0.9009201976,0.5778176333,0.1615101373,-0.4748444837,-2.1549225649,0.5349476811,0.5587672826,0.7917272109,0.2406103592,-0.4215023543,0.7098506325,0.5893874021,0.2158456467,-2.3651202264,0.2158911785,0.2827678097,0.5186098623,0.2974574802,0.3958779426,0.1796767809,0.0554309303,0.2887902099,1.1789787825,2.3224734902,0.3179541558,0.2279123422,0.4105208812,0.2219520044,1.4841586725,0.4613379435,0.2313714672,0.0843897387,1.5431948345,-0.5578542086,-0.0153471435,9.1957776447,-0.6639585063,0.6599522067,0.5773285289,0.0563118088,0.4097253588,-0.434766947,1.5557573612,-4.3530201727,1.0638389717,-0.6771429978,-0.3856888383,0.3526637238,0.2055600483,0.4227322273,0.2158735287,0.0799873552,0.4037222572,0.139805388,0.0642442256,-0.0044206154,0.3503057288,0.3330046665,0.0404618675,0.0683607405,0.1443119575,0.0879270961,0.4336478979,0.2033070126,0.0418986367,0.2764920297,0.148324517,0.3640384285,0.1586871743,0.2930301565,0.0039568765,-0.2875305002,-0.067944615,-0.2601670531,-0.7126496815,0.0749071722,0.4924823419,0.2072741212,-0.3590732224,0.1003074932,0.4436632571,0.2948163726,0.3376550366,0.1995964416,0.4336600648,0.2459797913,0.2513921575,0.1699618148,0.0632641119,0.3184148481,0.3974324968,0.4520743302,0.1779257817,0.2104969505,-0.240902955,0.1384727025,0.2181200538,-0.0684812991,0.3626101247,0.1189376187,0.2333083088,-0.3330060487,-0.1474916182,-0.0360850697,1.3275624289,0.0466048162,-0.034921362,-0.2708870795,-0.2685247517,0.0951914382,-0.4236533992,0.4758363196,-0.0490340024,0.3126303802,0.6301416201,0.0444216587,-0.0117518169,-0.1674862771,0.0192117133,0.2633673242,-0.1711171463,0.007070884,0.0085612623,0.166881625,0.2679280323,-0.0316200822,-0.374362365,0.1902017787,0.0839269442,-0.2217547921,0.0397222539,-0.1716790769,0.2112908737,-0.1245297046,0.3223752612,0.2734762568,0.3440713695,0.1907763826,-0.1953967846,-0.1229141857,0.1418492969,0.0586278644,-0.3098380599,0.169859657,0.1242880226,0.5027167867,0.2804664942,0.3764746412,0.3781620942,0.3734936868,0.1890919557,0.2748709661,0.124469138,0.4137658121,0.0658653894,0.3128391375,0.3802535517,0.6004789868,0.4104628067,0.0274040983,0.3775363848,-0.0479756775,0.1820143143,0.0937797409,0.2709443061,0.3595154529,-0.0582421152,0.3139979938,-0.1377326494,-0.2136224871,0.177152571,0.2553162656,0.0188970486,0.2440508199,-0.4212923442,0.4174511664,0.3830847208,0.2077121085,1.8399997498,0.2811988186,0.1384482824,0.1439124674,0.1992815126,1.6864883923,0.3662893702,0.2404875355,0.2067956696,0.2982224502,0.4462424844,0.3725489041,0.2322038053,0.2035843275,0.4192551182,-0.1061328641,-0.4263531839,-0.678088209,0.2742996839,0.2993441705,0.2345818856,0.4112483166,0.443431527,0.4633051317,0.553560494,0.5273559457,0.3965085141,-3.3802736048,0.7066419445,-1.229801145,0.163169485,1.0268432963,0.3323345292,0.5915400921,0.3533751556,0.4091328296,-0.2288478465,0.4573413734,0.0791745935,-2.0068332018,0.191647852,0.0351286876,0.3991865138,1.9063261894,0.2487618817,0.1470388678,0.42643341,0.150813621,0.4631274001,0.0114496483,0.3664782883,0.1547264932,0.1303853404,0.3854610335,0.2242758285,0.0690538707,0.4046833687,0.3869062316,0.3422271292,1.219410869,0.2366833567,-0.062368367,-0.0997266869,-0.252136051,-0.0695667273,-0.3363790943,-0.339253645,-0.3278038386,-0.359095775,-0.2864163448,-0.1066449709,-0.5749462781,-0.1219151863,-1.4170084493,-0.0596555586,-0.1407234943,-0.2038809042,-6.1232336797,-0.5938552716,-0.1656739298,0.1943573481,0.3920104266,-1.7866560796,3.3000069522,0.4177005366,0.1857182486,0.0363227476,1.324687013,0.2870895344,0.6676594326,0.2646618512,1.3697093855,0.925292164,-0.7396223048,0.6301208465,0.3392054352,0.4072461469,0.454903927,0.3009881545,0.6225149672,0.5049878421,0.5796904143,0.4777030083,0.1864563376,0.2908619541,0.299118719,0.2519311376,-0.3817543971,-0.2102589904,0.1914068596,0.2707250873,0.3407853968,0.1204246191,0.1513404147,-0.0014964037,-0.2561800824,-0.5213618604,-0.2447090349,0.0416851619,0.0461202574,0.1841246163,0.2212339687,0.1424924876,0.3133139379,-0.4717335662,-0.3473892315,0.1621939121,-0.2291297506,2.336428713,0.1695405803,0.324490132,1.8559326054,0.4020583444,1.0594609215,-4.2887244329,1.1251525583,0.1132201738,0.1247822549,0.0233737537,-1.5398147537,-0.0053719133,-36.4639043635,79.8806529215,5.370691012,173.9717277444,-16.2088646932,45.0722704725,5.884910694,-38.0564969255,-1.9624356589,-10.43838624,-13.6111973775,-52.5334571944,0.4132471306,4.2018362451,1.6790875017,-2.0287787538,0.4860552462,0.0151813708,0.3598502952,0.4114663997,0.2772982242,0.3640102073,0.1384484506,0.1018372947,-0.0882512363,-0.0960618807,0.2160529297,0.3130573174,-0.5315875395,-0.6079667758,-2.0879706108,0.043401168
biasActivation=1,1,1,1
[BASIC:ACTIVATION]
"ActivationTANH"
"ActivationTANH"
"ActivationTANH"
"ActivationTANH"
