encog,BasicNetwork,java,3.1.0,1,1386192337705
[BASIC]
[BASIC:PARAMS]
[BASIC:NETWORK]
beginTraining=0
connectionLimit=0
contextTargetOffset=0,0,0,0
contextTargetSize=0,0,0,0
endTraining=3
hasContext=f
inputCount=15
layerCounts=2,42,42,16
layerFeedCounts=1,41,41,15
layerContextCount=0,0,0,0
layerIndex=0,2,44,86
output=0.0043731749,1,-0.9758039536,-0.9999743404,-1,-0.077948035,-0.9986571705,-0.9967557038,-0.3965993542,-0.9854172923,-0.8568184685,-1,-0.9996756015,-0.9999928058,-0.1067589683,-0.9075291988,-0.9990936641,0.1517047153,-0.7371743196,-0.9354865647,-0.9999999421,0.8321040436,0.3822443327,-0.9999999994,-0.6070786142,-0.9999958385,-0.9999831721,0.9937234692,0.9998946337,0.4118657786,-0.9865639401,0.3110202493,0.0667060343,-0.7556473624,0.694757021,0.9665565039,-1,-1,-1,-0.2101079008,-1,0.4089523092,0.1613682596,1,0.2363137667,-0.4196754802,-0.1365608104,-0.2984267368,-0.4111397303,0.3522117973,0.284445855,0.2377509964,0.5588925949,-0.1692261457,-0.2032938319,0.2980027305,-0.4233165665,-0.4547636439,0.3070155639,-0.4341674637,0.4133329567,0.0980959865,0.1776409149,-0.5726334943,0.3706597048,-0.0630709133,0.1308584043,0.253090523,-0.2404120132,-0.2289238001,-0.2603875139,0.4151096131,-0.0418495907,0.3040526062,-0.0298275825,0.3948957859,0.3094841321,-0.2231111607,-0.3086111775,-0.1547332058,-0.2316306163,0.1310239146,0.1727413365,0.0623188671,0.4305077868,1,0.0033057851,0.0033057851,0.0033057851,0.0033057851,0.0033057851,0.0033057851,0.0033057851,0.0033057851,0.0033057851,0.0033057851,0.0033057851,0.0033057851,0.0033057851,0.0033057851,0.0033057851,1
outputCount=1
weightIndex=0,42,1764,2420
weights=0.140184531,0.0602391079,0.1079218955,0.0318697422,-0.0239404713,0.1936600613,0.1500262349,0.1440040534,0.1779704891,-0.0997217968,-0.0226376196,0.2085400129,0.0487740585,0.0825922237,-0.1373102067,0.1080338968,-0.307600263,-0.3135027693,-0.3512722792,0.0695775715,-0.1038381672,0.1116937642,0.2065580128,-0.1237687249,-0.0483427217,0.1019539933,-0.0748836229,-0.1579973571,-0.2107512923,-0.1190882407,-0.398570695,0.2900404402,0.0995882214,0.018853648,-0.061271181,0.1219913594,-0.047213576,-0.2057630588,-0.0817528391,-0.0046137708,0.1854256615,-0.0903459357,0.2294748254,0.1222627411,-4.4973298918,0.1690214854,0.2722415429,0.1554970957,0.2519718927,0.0345912616,0.0205331962,1.4771347376,-0.559126877,0.0838571792,0.0450966779,0.1210657225,0.3604884381,0.2040934001,0.0122646422,0.1637481416,-0.4450215382,0.2948933348,1.636294937,0.1178351546,2.8928902627,0.6544537032,1.7475570836,1.509261164,1.038428366,0.3655628028,0.2000760774,0.2166615746,0.2683278115,0.310029868,0.033349336,0.2575930217,3.8224366684,0.1798631056,9.9718352273,5.3513303693,0.2832054362,-1.7131595626,0.2943998536,-0.048493887,-0.1427184762,0.2969287003,1.785665987,0.2174262572,0.0884910157,0.2070659436,0.0517622812,0.0250783053,0.3733695148,23.6153924496,0.0372302425,0.5681697501,-0.5921356817,0.1989426819,-0.0449454927,0.2758859016,-0.0925984252,0.3634721038,-9.9993508699,0.6091992152,0.4480519068,0.1640554914,-1.2409564037,-1.2433345415,-0.5522965309,-4.6505428425,2.8986007642,1.682211571,0.9899348151,0.2207322919,4.5135273898,0.2565404656,4.2251580796,0.3546061372,2.2215901351,0.2117049996,0.7637104103,2.6606616448,-0.0144396682,-19.4555230129,0.1885995294,0.1449809787,-3.6885202935,0.3487696694,32.0883940258,12.9358296295,8.3350070886,0.1236884017,0.1010788115,0.1563534298,0.1446661348,1.037378314,-25.8150631203,0.0301035216,3.8217400941,0.1603833064,0.0963795151,0.0202133559,-32.4429148426,0.1205372628,0.6322932,-0.0403580038,1.4929942281,0.4168049471,2.0956687449,-0.0394025664,-8.2758865321,0.5373488932,7.0666137736,0.1336262088,0.3920523469,0.0124067556,0.3663986108,-0.3104108453,-2.3492586521,0.3495804579,6.5364190658,0.0574622298,1.5103867437,5.4938316364,0.0980578821,6.0997894587,0.0081698413,-0.4696014492,0.2460346508,0.1407016811,-1.037470726,0.2764260839,0.0556096713,0.1413910402,0.1071157645,0.1555809049,0.2217927107,0.277057458,0.032227885,0.1236451585,0.0840499419,0.1418831695,0.0289996713,0.1249590087,0.1238211773,0.0172685288,0.084042642,0.2205224199,0.1002325949,0.314487351,0.0285114895,0.1796935209,0.3443517025,0.2031566344,0.1639706578,0.1415382055,0.249785624,0.0187998937,0.2980679708,0.1396476231,-0.0447042033,0.4240265039,0.1912168611,0.0491123417,0.0687107883,0.3263176178,0.0430757653,0.333934658,-0.0610411404,0.0172118319,-0.0271903973,0.3820578765,-1.1465072585,0.4520186071,0.231809496,-0.1228156539,-0.1432591097,-0.0431249895,-0.3681936778,-48.7515755848,10.1191674724,-0.0708666198,-0.8302356398,0.6654697639,-0.4597797067,0.5276876241,-8.5454077099,-2.9512675164,1.0829651977,15.2879343856,-3.5415710164,-37.1360493228,19.4393690313,3.3096272036,-0.5779000873,18.7985301828,0.3425127833,4.5087298265,-1.4536114023,-0.0477577618,24.4512724243,0.0898155935,-0.1622307364,0.211418905,-8.1303508375,0.3727949327,2.1687622681,2.5966586583,-0.1833209882,-2.5535857911,-0.0022683632,0.0395412049,0.0552351392,-0.1022183526,1.7893735296,-1.0832294308,-0.6862268512,-0.1871840266,0.3493727366,0.0567395208,-0.0751385936,0.2621607024,2.6861586854,-0.1183647487,0.4598440176,0.1509788439,0.0022308005,0.3253895901,0.2446195132,-0.0442297562,-0.7610861328,0.8096412082,-0.1624078815,-0.0618469568,-0.342396006,0.0450055711,1.8567776186,0.0836854013,2.3399450447,0.121585137,-0.1315973981,-0.2153468365,0.1386997198,-0.20122415,-0.6604984011,0.0872149623,-0.9960681316,-0.0032041902,0.4123738862,-1.2041683757,0.188991953,-4.4779312344,0.0197978849,-0.4366319341,0.2527157718,0.2674674294,0.7058671808,0.2691950504,0.1834733521,-0.0229975708,-0.0777049819,0.0570276423,0.1756004483,0.2391393477,0.6367230617,0.3508035063,0.2343796258,0.0782397383,0.0955819016,0.1399858514,0.0297179264,0.1570149019,-0.1111310682,0.3461247475,0.2240663499,-0.0418972565,0.0479073649,0.0333142307,-0.2594940723,-0.0901491775,0.2208524092,0.3095740063,-0.9887834398,0.2785561603,-0.133503782,0.1718048376,0.5689424468,0.1234487432,0.9004435236,0.1229302256,0.0160545786,0.4283628285,0.1441107379,0.334666365,-0.0228837286,-0.1668093859,0.0712198028,0.3101596221,0.5284421608,0.1870138046,0.0708796336,0.2109706765,0.2677122019,0.2921851634,0.2052522579,0.3246715388,0.080906154,0.2562741177,0.0546213623,0.2210432922,0.0474619716,0.1838273322,-0.3964596847,0.0921650242,-0.8685028614,0.1779042889,0.0444351021,-0.0140342603,0.3121007534,0.2630768401,0.0343557049,0.9575572829,0.4659351607,0.0503286367,-0.1157851029,0.1550383689,0.4178832829,0.3240115543,-2.9728253066,0.2404844439,-0.6638003743,0.1604720398,2.2974858412,-0.7172659537,0.1429609303,-3.7080938722,-0.0258064326,-0.2532041392,-0.1352890367,0.2897268239,0.0594026928,0.1707193167,0.2136925731,-0.0877636956,0.0785074613,-0.1327421689,0.10676744,0.3135900973,-0.0513450693,0.1971852627,0.1017067079,0.2546633172,0.0795018628,0.2196592738,-0.0548495624,0.1018471613,-0.3975185069,0.1394600144,0.0902066596,0.1540939807,-0.2645005417,0.0186069662,0.0206440178,0.4178625911,0.6324849429,0.0937467765,0.0673048265,0.1232564593,0.2253935897,-0.1997501351,-0.0904183933,0.0843156037,0.6208493328,0.1460453979,0.2657606177,0.4128340616,-0.1218636404,2.2725504018,0.1218486645,-0.2444971721,2.5041479349,0.1701713682,52.5186386205,96.1926599591,-14.2013456773,0.2620388538,0.0801192482,-0.0027302376,0.1994613307,0.3924718129,1.9846756613,-0.0301543054,-0.1631391256,0.2825360922,0.00750881,0.3659871216,-67.2455056163,0.1614527393,3.6348631336,0.0294364255,-3.1743771819,0.1256678902,0.766319585,-0.1623664325,5.1308125395,0.2094271643,0.6625437471,0.0813666781,0.2106597206,0.0083529781,0.2748313487,0.1799935143,-1.0436086676,0.0709424043,-6.1021084476,-0.0234573893,0.6229634637,-2.6413845868,-0.0283317521,-18.4699750339,-0.0780231222,-0.4688795419,-0.1151621336,0.3487651132,-2.8757109128,0.1664734133,0.3783174431,-0.2508717674,-4.7183388374,-0.2008182191,-0.1606335459,-1.6140080868,1.1198547616,0.258463536,-0.9456580796,0.3920113729,-0.3237797982,0.3204810922,2.5916397539,-0.4463272239,-27.9626879607,15.3712623812,-6.7286677109,-2.240160724,28.6860984839,1.3951123687,-2.4620189312,2.6425920327,0.9341127801,0.3304598529,5.8647764109,0.0605351491,4.1594932662,-0.1974555537,-0.2137414401,0.2250376138,-7.2586295306,0.4425734964,0.0252842635,22.116029373,0.0563400001,61.7946735921,0.0770641962,-0.2201494215,0.3459219102,-2.5931718785,2.5098867187,-5.7271114106,-1.9462009673,0.0372590125,0.0282071109,-0.1000008604,-0.1384986473,0.3579840342,0.360236479,-1.1122500168,12.5799001186,0.4007326901,0.0046897348,0.379438746,0.8815554881,-0.0450170919,-11.0846360245,1.2555816113,0.3362845886,0.3284384416,-1.4360297864,-2.1119897395,-3.7893484448,0.5730058446,-3.5733089264,-3.4314196537,-0.1943881159,0.1258520364,0.2054517426,-0.3159458706,-0.7475669935,0.974906589,-2.87448226,0.2061241874,0.640050729,-0.3761575088,0.0500269333,-11.2733722091,0.1525687001,-0.2234488931,0.3039694839,0.1696346339,-0.409192143,0.1999731409,0.1667808913,0.0309275799,0.2994440996,0.0235872588,0.3467615905,0.8619668553,0.2426068268,0.0966006436,0.2234040106,0.0169358981,0.0146633802,0.2360627424,0.3757186277,0.182590929,0.0471346332,0.2744947389,0.2628089265,0.2403222974,0.2217102383,0.032781167,0.2780429669,0.2216207317,0.2227357015,0.273892011,0.0672400694,0.2213982933,0.2972435824,-0.0351147109,0.2268489277,0.0232187216,0.0437054773,0.2623567676,0.4161741342,1.4273508473,-0.2803025507,0.0614883035,0.240506032,-0.2486195392,0.1248178592,0.1380656362,3.0335888086,0.2070730668,0.4019430344,0.2548323692,0.2680635114,-0.0943344088,0.1656611818,0.6917911023,2.3713366869,-0.0163131978,0.3719605768,0.1279325128,-0.0379515904,0.1907430231,-0.6648070399,-0.0811892296,-1.6169401792,-0.1504565374,-0.0149995249,0.273253184,0.6357417724,0.1893468398,-0.4710152131,-0.5590778014,-1.0741462039,-0.0340000284,-0.0507026043,0.0510103005,0.6442172941,0.1229159529,5.5762949279,0.3280396154,1.0121253473,0.4232862139,0.1060658899,-13.0577158374,0.2147055667,-3.4537704811,0.1670629268,0.2230584482,0.3360442451,0.4088732805,-3.3024728561,0.2467680026,0.2123698883,0.3411786136,0.2134293714,0.2948823176,0.1391923053,-0.1745364897,-0.5357388916,0.1642229136,0.0399175507,0.4186452192,0.1631756485,0.3232411387,0.2233628132,0.1810082141,-5.9436290548,-0.0217862344,0.0624390895,1.0770924253,-0.0664598739,0.3047427594,0.1471915514,3.7059401382,0.4164505093,0.1767175355,0.3858332604,0.089601366,0.3991467545,0.0447501844,-0.1421976505,0.1706651206,6.2992496581,0.4899000292,0.1548214436,-0.850024995,0.2350054589,-3.013802589,0.1851639036,-0.1376187306,0.30951617,0.2633904512,0.7136135903,0.3308261128,0.1433340473,0.3008101453,0.3619708381,-0.0064469093,0.1659755471,0.1077875533,0.0276588594,0.3586073474,0.3566732913,0.3759037281,0.026417598,0.3550543889,0.1795009738,0.3049351468,0.4710430251,0.1091873378,0.2212225944,0.4369434211,0.2950512946,0.2267530799,0.4893365609,0.1418903875,0.088345241,0.1521287384,0.7112987884,0.0521034121,0.0264002469,0.2573049107,1.0234531033,0.3541091471,-0.0649338237,0.3806802914,0.166656371,-0.8301631672,0.0259823533,0.4959611374,0.3159706999,0.0546857791,-0.000334568,0.212274051,0.0952904733,0.5523524586,-0.4440306429,-0.1204894984,-0.1165843439,0.0285144986,0.0037213155,0.0196526558,0.2919435667,-0.0999916952,0.0485353495,0.5180687372,-0.1277671728,0.2847136746,-0.0704561832,0.1449939566,0.0311149266,0.3203321915,-0.0931948307,-2.5391641136,-1.0991729455,-0.0323965193,0.1652700517,-1.1119314585,0.0885271562,-0.0694319801,-0.3645086741,-0.0604964229,0.0044559138,0.1088938557,0.1658234851,0.3909843482,-0.3854116887,0.2252371446,-0.150077674,1.1631085147,0.0652541725,0.144007322,-0.0946308723,-0.4798839623,0.0020256084,0.5988182672,-0.2918348184,0.2766753416,0.2441195308,0.0100667845,0.0355371309,0.0429096102,-0.0393756747,-2.0922863302,0.5192077435,-0.1352660784,0.4518986906,0.5622045074,-0.1005849477,0.4350494783,-0.0277738102,-0.5166006873,0.0801124911,0.7203088155,-0.0856468406,2.1392381046,-0.2272916692,-0.4645001404,-0.2678182966,0.2584204388,0.4032318198,-0.2128320959,-14.6963196324,-0.07356268,-4.8260779553,0.0253065954,-0.0367241199,0.4127203207,0.9632683407,0.3147599941,0.1679357139,0.0674096845,-0.0655159193,0.391304347,-0.1228864601,-0.1148279425,-0.5639974744,-1.3756952386,1.0986620963,-0.1184195183,4.6372191045,0.0369585214,-1.8273100932,-0.1593890671,-0.2601945512,-0.6237921261,-2.543137978,-1.9923439442,0.4920887494,0.4057673978,0.0315056701,1.4590110602,-1.6090238154,-0.4184771779,-3.040852323,-1.1212935137,0.4031151316,-0.2846409945,0.6192796378,-0.6582079269,9.5970506116,-0.1193641107,-0.2849795509,-2.0903924724,0.6236713117,-0.1943293341,-2.000438513,2.6573343917,-2.9817684483,2.2391095121,5.235625349,0.3753748626,0.1103945652,0.1822477345,-0.2393720578,5.7198304776,0.0451155484,-0.0881857888,0.2023429756,0.0670914081,-0.1995710676,0.210472253,0.2330067187,0.2202225666,0.2535213627,0.086534052,0.2523321038,1.201495928,-1.3003582372,0.2055155639,0.2000217722,-0.0077961787,0.2084494294,0.0788851294,0.0432600239,0.3247955422,-1.4122386137,0.1900572162,0.3424626367,-2.65958922,-1.0488694622,-0.0104766409,-0.0485253137,0.1007610587,0.0547749741,0.3398810814,0.5217843469,0.4692247159,6.2788225554,0.0755211366,0.3393997419,-0.0761141918,-3.3005020629,0.024198088,0.2821529867,0.4273437172,0.0300234328,0.4157670792,0.1615594401,-0.227284771,0.0024980832,-0.0074149428,-0.7213929794,0.0357292296,0.0392716462,-0.0548744398,0.0653950907,0.2900034277,0.3600944233,0.0487068073,0.3598542693,0.3287554868,0.218059985,0.0683516674,0.1180108639,0.1024950629,0.0312372681,0.0826224553,0.1473460625,0.3183182048,0.3886507377,-0.3407298092,0.3047680424,-0.0593223551,0.0381825167,0.3030960614,0.0694084587,0.3162703382,21.6388728079,0.0686821592,-7.9674021487,0.0730020959,1.6451598667,-0.0053723476,0.1670909525,0.3265440389,0.1421717753,0.7921601964,0.0675450287,-0.0200950757,0.0674244769,0.1825757763,0.3049475758,0.1208069278,9.327314946,-3.3317858616,0.3095078113,-0.0231810317,1.0745825441,0.2716076892,0.1256985963,0.2373353322,3.1520203208,0.2311419567,-4.6532955815,0.1885775646,0.0470994515,0.2932506857,1.7129183344,0.2159559365,9.5291485919,2.0068313053,-3.0918369057,0.0278564753,3.721277232,0.8049536909,3.3623890497,0.0825383114,11.011984769,1.120151425,-0.2122663843,0.0901837285,0.8133899013,0.2809522242,-0.8734220626,0.3403898896,14.3521775354,0.3252593948,2.2606072393,-7.9105636056,0.2346859363,-62.9785505735,0.1706573777,0.2782671608,-0.0361182165,0.1894535171,0.2625694794,0.1112661171,0.1899173798,0.0971836243,-0.0118915463,0.0332677381,0.0323196978,0.1529792222,0.204356436,0.2848333732,0.1408903744,-0.0317417907,-0.1195544666,0.1568063446,0.0108118618,0.2351649757,-0.01825013,0.1006737341,-0.0580015494,0.010233877,-0.1053268931,-0.2211775749,-0.049828993,0.2179956248,0.1774033504,0.1488749076,0.1047819421,0.2651357576,0.3561129256,-0.1551790794,0.0547923802,0.3242509947,0.0331914387,0.0200233078,0.1434978543,0.1958165406,-0.1646434698,0.847673535,0.1637467356,-0.2686904837,0.8358073222,4.9129143557,-0.4174173062,-9.5390194377,2.8961279903,0.3114420477,0.0765700916,0.0928047775,-0.1051043402,0.2666069891,2.6835378051,0.1796946821,3.1856734008,0.3729919097,0.2864799735,0.237517271,-4.4677937712,-0.0066836323,-2.0067787215,0.3117165665,2.7264800356,-0.1801957599,0.3159491162,0.0618613173,0.8517457104,0.3767760778,2.4306675893,0.1263345104,-0.164469869,-0.0241704982,0.3428701055,0.1460756684,-3.715822948,0.4017506982,0.8766815119,0.1942538532,0.2469353162,-10.2328761582,0.124678395,11.8512696654,0.0515982937,-0.1306569982,0.6046178826,0.5130810041,-4.8319421592,9.2677543275,0.2963343085,0.1234554979,0.1108773874,0.2105603218,0.0238669991,0.4902002422,2.6228920957,0.0479132204,0.1369082836,0.4265462695,0.1235035829,0.4201372631,0.1888168217,0.2190054079,5.6419223267,0.6349421702,-0.2187352523,0.2954531687,-5.6449989769,0.1141762245,0.1426810353,8.9777412177,-0.3150302687,-0.1875966685,0.2118062647,0.2011804928,0.8770265706,0.0340981234,9.2949552864,0.290553649,-8.773406869,0.4280763601,-2.2569828175,-27.5506779022,0.0852472517,-51.4999152069,0.193547778,0.1795856316,1.5694521982,-0.0012153191,-5.0889862766,1.0586848522,-0.4950018424,0.3170827948,0.0358564581,0.3194909716,0.3108019191,0.0384829871,-6.5783686,0.96732816,0.4316945151,0.2458599301,0.0331971636,0.2323310726,0.220363536,0.1282084368,6.4932380496,0.4136310511,-0.5638968981,0.2246917602,0.3930881756,0.1842839824,2.1810858409,0.347567548,0.0552682796,0.1080347155,0.1827643227,0.0581238041,0.4502831906,0.3397978057,3.2075994316,0.3028031235,-2.3894238006,0.2525835909,0.3881404495,-2.2592332327,0.3259516458,-19.390553321,0.2222862008,-0.3124775524,19.1965616896,2.0917645895,-13.3629461649,-0.2664420689,0.0356070259,0.1955694337,0.1798208314,0.2823121163,0.2662824535,0.0393827651,-14.1172405925,0.2632290033,0.9737679915,0.0920003692,0.0589850863,0.1450623945,4.4077803554,0.3620545755,0.7036891184,-0.4142088709,-0.252562779,-1.3183566916,-0.5293916458,0.283379269,10.6203847076,6.1971081895,8.7375280948,0.1623254882,-3.980992661,0.174003686,0.0034023623,0.274663147,6.1872629991,0.22776864,1.391120969,0.0022384494,3.5794395107,-10.6075082158,0.1767123448,10.8740071475,0.196174552,0.2307055533,0.2582444322,0.1881566203,0.1415069706,-0.0531469677,0.0898937755,0.0831922402,0.0785142763,0.2360303888,0.2777725782,0.2493099012,0.1851475463,0.136179954,0.1664875068,0.3628383122,0.1022713692,-0.1248059896,0.0886289208,0.1499050832,-0.4016876619,-0.1258043057,0.2167832268,0.1929277727,0.3321306636,0.3340281992,-0.1008225129,0.1978743358,-0.1999616135,0.0949419035,0.286114733,0.2090131865,-0.4158248378,0.3778897912,0.12671116,0.0731636618,0.0875788292,0.1210248828,-0.0456494922,0.1147841514,0.3510107574,-0.0157489875,0.1110211551,-0.2196684137,-0.1213941174,0.1017388978,1.0789416202,0.3849219955,0.0758684876,-0.1551919023,-0.6458242024,0.0883471779,-0.1991104309,0.0018985854,0.0479657944,-0.3021388753,0.405766253,0.0918870367,0.0154619962,0.1694337828,-0.1478953485,0.0246500802,-0.2720626233,1.9433614355,-0.2522333174,-5.0262903975,2.5743475168,-0.5030776376,-0.3172518992,0.2277114978,0.0594218788,-0.1229683221,-3.1182610462,-0.1535746174,0.0433485815,0.0169681416,0.118309728,0.3204752278,1.0209945494,0.2512764142,0.2905895611,-0.1535603653,0.0226124357,-0.0530945707,-0.2619812561,-0.0937568924,0.0034442907,0.3271380324,0.6428926001,0.5644018661,0.3478048756,0.201982849,-0.0458117008,0.2239882022,0.1775972334,0.2146913108,0.5088305002,-0.2976476531,0.1857682237,0.1944362378,0.2608584952,0.3202765452,1.9767321367,-0.07476531,-4.2296667927,0.3723673158,0.0046437718,-0.3653161394,-0.4419494021,0.0517429852,-0.6323842801,0.3650669201,0.1301376426,0.0118868458,0.7714456368,0.0181824235,0.2299909411,-0.0396350553,2.0834186367,0.1071062358,0.6434056482,0.1435277783,0.2219506092,5.2857944956,0.3040450328,-2.9619548593,0.1292983166,0.3209951592,0.3448187144,0.2875820975,0.0192093117,0.168492459,0.1690835973,0.1460289298,-0.0335363533,0.0669749925,0.1894589072,-0.0071080208,0.3231503319,0.3688827525,0.0414671897,0.0320204209,0.1195063551,0.2080864725,0.2829410126,0.1950204469,0.3475678191,0.1573973848,0.3803248719,-0.0027145635,0.3204473778,0.2569104253,0.2473741934,-0.0711430889,0.2614228003,0.1636949364,0.1616569732,0.156501057,0.4527825853,0.4991911093,0.2383588814,0.126759,0.3326703133,0.0443849824,0.3369844078,0.0529406558,0.1725370019,0.14505276,0.0253994684,-0.3464748534,-0.0715205993,0.2281908811,0.2447434973,-0.5348967768,0.210665359,-0.2301120022,0.0135088823,-0.1252969516,0.0865112507,0.4060262898,-0.2130504548,0.0890782444,0.1316365186,0.3526234697,0.0253025798,0.1304821821,0.1512135694,0.0223424222,-0.8782111658,-0.0488691816,-0.1377153613,0.0627061542,-0.2272926797,0.0583474488,-0.0864072454,0.4149781703,0.4332236471,-0.0260095719,0.1620434136,0.1707657916,0.1635601323,0.0915365343,0.2039271085,0.404303565,-0.0894491783,0.2560612797,-0.1048050055,0.8432807077,-0.0383041557,2.3569256765,0.0177806715,-0.5793027997,0.3185350347,0.2075856583,0.0700888352,0.043746764,-0.0244430922,0.3378156812,0.4250625131,0.2314948036,0.1251991018,-0.0106936121,0.1332830016,0.1144226283,0.1783082771,0.1632786904,0.294055516,0.0184101993,0.0848975016,0.3932530533,0.082262036,-0.0228964792,0.0971373157,0.0573309673,0.1955751813,0.1893836971,0.1365383157,0.1098926307,0.1472224991,0.170499521,0.0400158058,0.3092457427,0.2018227463,0.330207465,0.1569228716,0.0899765595,0.1789144353,0.1523287642,0.0126242604,-0.1270840776,0.197065921,0.167182533,0.3459860182,0.053216226,0.0853340494,0.2443125968,0.5454776607,0.0516844626,0.1233977427,0.3743422782,0.0757300407,0.2229364383,0.2875450649,0.1628545537,0.2872832334,0.3450044042,0.2810197937,0.1303387629,0.1538881186,0.1244078549,0.2193024867,0.1903594248,2.4339417817,0.1949892423,0.5506782488,0.1744403921,0.2176443831,0.0379851506,-2.6724982285,-0.4931659152,2.3825012247,0.20272259,-0.1535249046,0.0218801086,0.1742129112,0.3482417368,1.3728352905,0.0661276133,-2.538887627,0.1287423374,1.3228085191,2.3700495675,0.1220228497,0.8452381556,0.2629685617,-0.3294721246,-12.4871628047,0.4272343052,70.237781082,17.4519814543,0.6805170554,0.304949535,0.2281051827,0.0407126111,0.184044284,-0.0737466593,-9.1696424859,0.0682640586,-0.4947180974,0.2184367512,0.2510249945,0.3888554567,9.1450747625,0.134484244,-0.9689098151,-5.3452563553,2.6673222382,0.2619344584,8.0323220768,-1.7880288446,-1.4098327712,90.774005214,100.5191907147,0.2106259517,-0.946512974,0.0274596876,0.2236838298,-1.3015265805,-1.7362917667,0.1820692676,-4.6365327062,0.4466617521,19.3009428659,16.3171682794,0.0942656085,92.4051627808,0.2903892823,-0.0174843041,0.0037431035,20.679608002,-34.9447302797,38.4269478775,3.3503709295,0.1238834578,0.1052402991,-0.1320561034,0.173489298,0.5275935981,5.0841854235,0.1837859647,12.6807816592,0.3267997792,-0.0357920786,0.3359639716,-2.4105604552,-0.0147822964,-11.2501774931,1.6007283135,-3.1437110061,0.3169587752,-0.7418990663,0.1465585315,-15.3413682258,0.4625276029,1.2924504191,0.023497402,0.0198073722,-0.0614382175,0.4900742349,0.1838916973,4.9113590109,2.9466342088,12.2265274103,0.1583717246,0.5037511355,-3.2359120718,-0.052946405,29.4993277358,-0.1195086462,-0.3104534134,9.407353313,0.4812540731,60.5725676133,0.0929966189,0.2100262289,0.068737416,3.341452151,0.0053372558,0.1020762455,5.6385481381,-11.3770013682,0.0224465143,0.2029203235,0.208098804,0.1856825727,0.1375252518,0.0119791121,-0.0289646453,-17.1778015901,0.0479549927,-1.0358094615,-1.4513562295,-1.4540018804,0.3936950257,0.2245302976,19.5334906697,24.0536908089,-2.3965909877,-0.0403592967,0.1043833587,0.136038163,0.074433446,5.4893927777,0.2187404913,3.6100485025,0.2684576144,-4.2617469266,-2.6955554373,0.3326618106,-101.0089453678,0.0121836696,0.2179775041,0.1354816012,0.3326073181,0.0210013793,0.1701461752,0.0655387021,0.1952324177,0.2390357407,0.3753638175,0.4069271028,0.2068886765,0.221909348,0.0572014415,0.1300880636,0.0962769326,0.3358159608,0.0994113194,0.0534719773,-0.1273017455,0.2823680655,0.3357206279,0.1970843731,0.302421872,-0.8668701763,0.0164621848,-0.0272753224,0.2318697393,0.2759117281,0.296500485,0.8458827917,-0.0796631143,0.2792815065,0.2300030904,-0.0466174223,0.2062319238,0.1128360216,0.3037784462,0.3825555811,0.2154048195,0.1225878203,-0.2310955588,0.0513380556,-0.0426056955,0.3319375846,0.0031681504,-19.7032654946,-13.8116891563,0.0649333766,-0.1245958817,-0.2135544288,0.2218805865,0.2789898385,0.0622034831,-8.2515107789,0.1375158421,4.3611974769,0.0115403307,0.0337795573,0.0956946991,-0.1720566585,1.4928140505,9.1486245488,-0.3576954639,-2.4673369732,0.9189168891,7.9176937508,2.4846719069,-3.9281903975,-5.6444968712,-1.4190006865,0.0046800126,-2.5253085269,0.1914229576,0.0384582758,-0.0238402916,-20.8355823173,0.0234738093,20.0733969146,0.0647808365,-3.2596841575,-18.2269295911,0.1035840917,-423.8756566585,0.0073760618,-0.4696843904,0.0395286184,0.0101059357,0.2685582916,0.1511144771,0.1547134096,0.351632718,0.2711999106,0.2729667199,0.0772022119,-0.0481737632,0.1378667886,0.1295161391,0.1466842196,0.1036624824,0.3219137034,0.3700679913,0.1362078009,0.2879010545,0.0100438592,-0.0006228969,0.2098558795,0.30307699,0.1925326998,0.1088296878,0.1708577756,0.0091824143,0.2314045508,0.2539662335,0.0630648619,0.2422664683,0.3183458855,0.3597572333,0.1342695535,0.2179691301,0.0116345863,0.2713458689,0.0888540059,0.2853177035,0.2623753057,0.4065923784,0.3383088363,-0.1661791058,-0.1643970781,0.0403859965,0.1612930024,0.3022214542,0.0858374954,0.1588730574,0.2908666602,-0.2058498185,0.1921898985,0.1074794501,0.089092442,0.4030340742,0.1309013115,0.2566955515,0.0920075891,0.0192779833,0.3107861065,0.1513559871,0.1148978855,0.2434507875,0.1389549061,0.1366063304,-0.150186337,0.1480500308,0.218993349,0.1337086815,0.0447996956,0.187047309,0.2925959065,0.3701509188,0.3897505484,0.0025246955,0.1994670216,-0.0006084136,0.1149302205,-0.0374182854,0.0313807907,0.053953584,0.0950633657,0.184708946,0.2224331431,-0.0756904614,0.0767351025,0.1181370436,-0.1622386978,-0.0689854379,-0.3937376423,-0.1411554205,0.1824321352,-0.0348910857,0.0769509742,-0.0321142438,0.1965041765,-0.2102840897,0.2089180798,0.0081443928,0.0491916499,0.2412840518,0.1134404466,0.081703259,-0.3880057263,-0.176073881,-0.1600916917,-0.1570356739,0.0687357092,0.1599509927,0.0402631379,0.3384282396,-0.2205897263,-0.0626750933,0.2095835266,0.1134336234,0.4490574687,-0.4486538465,0.1331479185,-0.6450069765,0.2553103669,-0.0629318696,-0.1848190192,0.0185957782,-0.1335158776,0.0711130324,0.1465566361,-0.1681063256,0.124184579,0.2579344471,0.5474748538,0.0590113492,0.0867582725,-0.1390910975,-0.2093647701,0.0429568739,0.0301835493,-0.1614044058,0.1716274902,-0.0146439102,0.1114966484,0.2331219062,-0.0325799963,0.0722097584,0.2444437738,0.0193203981,0.2366240577,-0.0011932623,0.0777879674,-0.3105043193,0.1162247855,-0.264548113,-0.1656761794,0.0640799692,0.0622084742,-0.2369416118,0.1955569683,0.1956574563,-0.0623401348,0.0667864165,0.0711475755,0.1499144936,0.166261958,0.000382627,0.3601983731,-0.439358599,0.0399661623,0.1693918314,-0.0139229621,0.104986949,0.0213894337,0.2093755763,0.2201996238,-0.0273047434,0.0191924813,0.3731243907,-0.1672429397,-0.0400968262,0.4310601765,0.1354159416,-0.8939147332,0.36604384,1.4105960443,0.0367154589,0.1074849565,0.003402338,-0.1699887092,-0.7931049798,0.2284151273,0.0330657519,0.4469928259,-0.1674555172,-0.4019653429,-0.6030342158,1.5952956308,0.112656236,-0.7055602503,0.2887655381,0.4511475434,0.1420314021,0.2037791467,-0.1565240412,0.0432978024,0.0365474229,0.1826544826,-0.0374656802,0.1925584546,0.1217885106,-0.1526598666,-0.1555121723,0.1869368961,0.0435560681,0.1021389898,0.2384079361,28.1083517807,0.1662980187,-0.4512972649,0.6174171018,0.5275713378,0.5654678164,2.995642916,-7.9264313546,-9.424717663,16.951349578,7.7706569367,9.0311107436,10.6619613358,-1.8080354133,17.2099992308,0.383302793,0.0698585446,0.1085555617,-0.0497978651,0.0584171828,0.0854488891,0.1015647697,0.1493890285,0.116337473,0.1712007953,-0.1087432991,0.2453650193,0.1572927836,-0.0917898815,0.195734848,0.1686793062,-0.1754236495,0.3798400476,-0.4853745554,1.0377397702,0.2312724239,0.4584013373,-0.2309882275,-0.3476843177,0.1280248341,0.3651363418,-0.0383457978,-0.0058801525,-1.5121082835,0.3941064887,-0.4570119418,0.1793900589,-0.2064850663,0.4592557682,0.381572293,0.0063768686,0.0901194801,-0.1452697,0.004628978,0.2940938079,0.0878505255,0.4118343678,0.6146047188,0.2385824567,0.3247081619,-2.2581296072,-0.7935152889,1.2315690693,0.304191427,-0.1974532809,-0.7738211194,-0.6830794776,-0.0967534157,-0.489447485,-0.5121369604,-0.1324385163,-1.094231263,0.6592834746,-0.4237913164,-0.1079319748,-0.1628860204,1.0745467508,1.3909441051,1.4037925219,-0.4512451076,-0.152052057,-0.0984044999,-0.1957180745,0.1423475729,-0.1011217539,-0.0463829954,0.2224555936,-0.1686644652,-0.0429569963,0.024376501,0.0412903455,-0.0152885032,-0.1498549763,-0.0778579682,-0.1775788966,-0.4880602119,0.5365707885,0.5947282161,-0.2803546304,0.0625402741,0.1349272673,-0.1147899212,-0.3050876351,-0.204918459,-0.1525919948,-0.3493380251,-0.0955292286,1.0384844214,0.9910631773,-0.0618463229,0.3488493502,0.3101637109,-0.1108602187,-0.2349846563,0.0482304504,-0.1747517494,0.1199983151,-0.2203181674,0.0289022347,-0.0235474966,0.0582547904,0.1408536318,-0.1259505797,0.1305313486,0.0725334572,0.1897635199,0.0263201973,-0.4647728003,0.3045036266,-0.0906297996,0.1061740522,-0.1614942416,0.320922766,0.1274321487,-1.1743926395,-0.9326615731,0.1059319939,0.0338428029,0.084228581,0.2297714479,0.2464311613,-0.0105745363,0.1925002424,0.4416672972,-1.4242887973,0.6498773917,-0.0061197109,0.9594352185,-0.0028303925,0.0871365718,0.4673889902,0.3001248513,-0.1397585473,0.5617971698,0.4237783668,-0.0489675362,1.9474419685,1.3999749661,0.229556001,0.0805461997,0.5620319423,0.0202333582,-0.0150978343,-1.5936119656,-0.1661994517,-0.1201712869,-0.0241517677,-0.1750300727,0.1595965633,0.0140728211,0.3174758301,0.3520322854,0.1990681228,-0.1896962356,-0.1432742548,0.1821993007,-6.558107996,9.7598207578,-0.2003545518,-2.7999723201,1.3854279026,0.1189146247,2.9235826754,-1.1066312785,-10.8376823003,-8.7877906021,7.4800683795,0.9273812861,0.9191148643,-1.2999123962,2.0326379124,-0.6314539304,0.4948954478,0.3873254312,-0.1877616071,0.1822635702,-0.0492218607,-0.488724979,-0.6248787602,1.0653044002,0.2612153911,-1.9486091002,0.3080304837,0.215233816,0.2519712957,-1.2614401342,1.0861528186,0.3902066472,0.4972455388,0.5479021615,0.2117843447,-0.1346436098,-0.3952215627,-0.3901894868,-0.6090980996,0.1501409271,0.2756800502,0.8609269632,0.404169686,0.3821735959,-0.1805118671,-0.4908390964,0.6915441197,-0.0691747894,1.164118139,0.1378054308,-1.5100154438,-0.2495224099,-0.590400849,2.0647738912,-0.3874467302,-2.4327887962,-0.2258065623,0.7458302975,0.0261763083,-0.8493077553,0.3956907861,-0.2336894053,-0.0057038403,0.1380603397,-5.5286124204,0.2335106412,-1.1911903868,3.6140771855,6.2483872522,8.3814191105,1.6204722904,-3.1606722384,2.9844965873,0.3523166056,16.0874880489,-3.9200320248,-5.65183696,-1.8949937501,-1.2940918469,0.2029080079,0.2743036793,0.1523728119,-0.0737515312,-0.1663503294,0.0085631406,-0.1673021378,-0.0092364581,-0.7498693809,0.2806114186,-0.2062139477,0.1046428941,-0.0387344589,0.5593460968,0.0687063439,0.4112822208,-0.2466935703,0.0331360786,-0.1257651309,-0.160894879,0.2160163184,0.1389748288,-0.1668732728,-0.04224068,0.207300782,-0.047134792,0.2725250426,-0.0141556575,0.0367991852,0.0686770296,0.2780990187,0.3370436151,-0.2364633945,-0.2029845099,-0.2456935031,-0.0252001975,0.0484649584,0.1980855217,0.2153318958,0.196867616,0.121695142,0.1034361676,-0.0504700662,0.1977292668,-0.2699737883,0.0522352854,0.0438696279,0.7277394787,-0.2701972274,-1.04287272,0.2980506055,-0.0273643947,1.0741579775,0.1384635025,2.5144661206,-0.320229847,0.0953248006,0.1950109912,-0.386819713,0.1257809083,-0.8973311043,-2.4920487717,0.398835528,1.1385452637,0.4390847121,0.242571112,0.5120937616,0.8491606576,-1.0381260234,-1.1702686045,0.0908947542,0.031932069,4.0525076812,0.4189075848,-0.36024386,-0.2086228963,-0.351048546,0.19926752,1.3444165226,-0.8212751593,-0.0544101359,0.3151020526,0.2215601539,-0.039942201,0.16852613,0.0217115163,0.032794277,0.1527926839,0.197851837,0.3457637326,0.0043050786,0.2488558266,0.2246287381,0.2305462945,0.1734165386,0.4250234362,0.3049775634,0.097569365,0.1651777662,0.2141347247,0.124620907,0.122763182,0.0463756188,0.1187810326,0.1369021392,0.2294960788,-0.1892647815,0.1074843483,0.1010117386,-0.0813578665,-0.0998111729,0.2443236466,-0.0342602568,0.1044476304,-0.0313258548,0.0361287247,-0.0803741279,0.0303510961,-0.0001709021,0.1736234855,-0.0579920784,-0.118753384,0.1587404643,-0.1433199168,-0.2087024779,0.0909207207,-0.7557252738,0.3424959127,0.4191066679,0.4872316204,0.4736353121,0.6929047506,-0.0902287376,0.2061260985,0.0512433467,-1.2617833787,-0.2259211273,-2.2875291606,-0.6071664886,-0.1297745481,-0.0951651107,0.439160479,0.7040954229,0.4490466893,0.3239223168,-0.0095341175,0.1577245411,-0.2456175838,-0.0091956682,-0.1243687815,-0.2366985328,0.0183372451,-0.2496840362,-0.1920447654,0.1529582762,0.1340184686,-0.1342443628,-0.0743680716,0.0194022635,0.4166428921,-0.2256826762,2.8442590613,1.089618292,1.7017359336,-0.463114739,-0.6267135139,0.3306390657,-1.4686818198,-3.4481177766,-0.9545079902,0.6635804082,-0.3937455768,0.6125598755,-0.5573018994,0.9110410645,0.8132328063,-0.3224955564,0.0487918314,0.0061416694,-0.1327053618,-0.1842155807,0.0020770183,-0.2508394059,-0.0092798174,-0.2588183325,-0.2297910071,-0.2374900358,0.0061204883,-0.0060447851,-0.0811416824,0.0270205684,0.4164373377,-0.1530647027,0.1641947089,0.006222708,-0.1529916389,0.1696006025,-0.1415132853,0.0052113266,0.0197154087,0.204604102,0.0260426795,0.0378820398,0.1307170157,-0.0470015945,0.0784915363,0.220331747,0.2796956028,-0.2392216063,0.3377551157,0.1201359865,0.0442771238,0.6170452679,0.5620413091,-0.0653585529,-0.011624795,0.0743977844,-0.0130700876,0.2676446032,-2.1419943268,0.6246351607,-0.1105489017,0.4935922987,-1.5629603432,0.1343072345,0.3808757396,-0.0740713614,-0.2097445409,0.1965952689,0.431176234,0.5202663376,0.0849110762,0.1439736991,-0.0083506501,0.1870977078,0.0782979364,0.2081536959,0.418673347,-0.0441892021,0.0070026167,0.1668193158,-0.209968378,-0.0923694201,-0.1113650039,-0.0644263356,0.1065251188,0.0011508417,-0.1216347096,0.1512658848,-0.1313876878,-0.0040717562,-0.0939821052,0.0779251003,0.0619054195,-0.1024813719,0.2967429369,0.0631804624,0.4769367238,0.1854661423,-0.0729869573,0.1679798352,-0.1723614547,0.2250564959,-0.1601511934,0.0687403163,0.2632798598,0.4329891323,0.0227179049,-0.1448384835,0.25799303,0.433019294,0.3277055444,0.4528783481
biasActivation=1,1,1,1
[BASIC:ACTIVATION]
"ActivationTANH"
"ActivationTANH"
"ActivationTANH"
"ActivationTANH"
