encog,BasicNetwork,java,3.1.0,1,1386193150706
[BASIC]
[BASIC:PARAMS]
[BASIC:NETWORK]
beginTraining=0
connectionLimit=0
contextTargetOffset=0,0,0,0
contextTargetSize=0,0,0,0
endTraining=3
hasContext=f
inputCount=15
layerCounts=2,42,42,16
layerFeedCounts=1,41,41,15
layerContextCount=0,0,0,0
layerIndex=0,2,44,86
output=0.4659934888,1,-1,-0.5088086592,0.1555609234,0.9581903665,0.9968155835,1,0.9847261513,-1,0.9422415475,0.9999964492,0.9983857877,-1,1,0.9998056722,0.9822987024,0.9640414669,0.9809849414,1,1,-0.999999995,1,0.9624107471,0.9999999335,0.9854339805,1,1,-0.9960902652,0.9998616739,-0.1020768099,0.991767728,0.6668272761,-0.1615927453,0.9999999575,0.8831869443,-0.9902814035,0.999989934,-0.9989798209,0.99999999,-1,1,0.9467129027,1,0.4515264321,0.8599633381,-0.0504805895,-0.109471842,0.3037533402,0.8045749548,0.2572925326,1,0.2432597894,0.2331718715,0.8541457594,0.133973229,0.17660219,0.3665303678,0.9603034962,0.4836574802,0.2489868214,0.4767675688,1,0.8454416076,0.6750742398,0.2218630482,0.4096009092,0.6904136028,0.8725644475,0.1275136948,0.7904670501,0.9648360353,0.9999356621,-0.4812659465,-0.0250953425,0.5731602637,0.442196262,0.2490206318,0.0717530722,0.1510866049,0.051812924,0.9618880669,0.1819886255,0.3209224996,0.6760305436,1,0.4134550697,0.4518981259,0.471119654,0.471119654,0.46150889,0.4326765978,0.4326765978,0.4230658337,0.4230658337,0.4518981259,0.4807304181,0.4518981259,0.4518981259,0.4518981259,0.4518981259,1
outputCount=1
weightIndex=0,42,1764,2420
weights=0.0627721354,0.1677386345,0.1184452915,0.1505654265,0.0569847161,0.0171165096,0.0726248864,0.0655816773,0.1056846789,0.0329102913,0.0804902328,0.198160811,0.0441514707,0.138743671,0.0738914204,-0.0863075465,-0.1029060362,0.0160626141,0.0215036168,0.1257763726,0.0883006255,0.0964251047,-0.0415790548,0.1252318035,0.0406992532,-0.0485260543,0.2790267801,0.0608606519,0.0941660346,0.0737283097,-0.1079435121,0.2403423247,-0.0812529398,0.1243484805,-0.1605336185,-0.0622009335,0.1224087128,0.0810400501,-0.0695841528,0.0511450543,0.1451169585,0.0798073758,-0.2847433748,-0.336072562,219.2611432286,26.8140199819,0.3948325992,-0.4336582634,1.6255405374,-0.1758524196,0.8552942963,-45.0973233409,0.1927352466,4.3512965808,-1.4526668797,0.4810981827,-0.3573841765,0.2102810975,-4.1453534769,2.3713489733,-0.398761747,-2.1348587062,0.3424621488,19.0641404818,0.3193048215,0.0927725716,-0.0762120584,0.5658832154,-0.2293647393,-9.0530734384,-0.2153949499,215.9442420806,-0.288111259,2.1520285995,-0.6036981876,0.4824137355,0.8569545843,16.1659743294,3.115201872,0.3421246221,0.273493504,0.5004901634,0.2432128292,-0.2540327141,0.0256981549,-0.4714913182,-1.806986595,-0.3245838298,-0.1236193978,-0.4598300673,0.1979666596,-0.1239483048,0.1186582223,-0.9798470518,-0.1671003412,0.7405348935,0.5485806209,0.1992880653,0.2420776001,0.0270574594,0.2190420328,-0.2270155282,0.0046203578,-0.378655826,0.1341755052,0.4489357868,0.1686096635,0.1471342829,-0.5237493869,0.2326003205,-0.3206957612,0.2413662508,0.2683237287,0.4857208923,-1.2680131179,0.1358938171,0.0675860978,0.0449109281,1.309402148,-0.0300233002,-1.7091028459,0.2390808662,0.2359649385,0.1929871683,0.3077140746,-0.2585495946,-0.0837170592,-0.0386429409,-1.7130502044,5.3409033605,0.3969950534,-0.1981171207,0.1471394779,0.169122434,0.4354360368,0.0246418665,0.1362966527,-1.360387605,0.1374925595,0.2753027171,0.1049008358,0.2074408921,-1.3526378204,0.0241003996,0.0598214586,-0.643242954,-0.2196821889,0.4174833939,0.4179294475,0.4578311738,-0.0528301769,-0.5976044994,-0.0494680771,0.7000152941,-0.0870185938,0.2810915963,1.3311206865,0.0439921359,-0.0236773474,-1.7346867913,-2.0668108289,2.8362905187,-3.3619834262,0.1930212382,0.256596874,0.3387058352,0.1443042106,0.1777986714,-0.0090712279,0.235309711,-0.7261199819,0.2431804073,0.3265595598,0.0762535949,0.0364474145,0.2889940389,0.1231176513,0.0319644777,-0.2901819848,0.2857412557,0.1261250673,0.0107822529,0.2062431289,-0.3730955749,0.0321989998,0.3392285996,0.0982176225,-0.0610373547,0.2518847072,0.086451831,0.245513661,0.0967689795,0.0421025282,0.1339884569,0.1145832971,0.136633533,0.3117201134,0.3665546201,0.1105960602,0.0676706002,0.2827804152,-0.1115949504,0.1966532614,0.3339028777,-0.2740321384,0.1792620244,0.1368568202,0.1527360658,0.0475063033,-0.0621151326,0.1491258341,0.0397667904,-9.6992710692,-4.8107304395,3.9544379406,0.3044386605,-0.2927662686,0.2491913464,-26.9132267556,0.7843889729,0.119028971,-0.4638968705,41.7291046214,-0.3676575572,0.3606355234,0.0857872243,-3.0013981277,0.1220723722,0.3068590261,0.5163044172,0.195738255,-3.6531972102,-9.0000590613,0.4915831707,0.290359698,14.0981645239,0.3921565793,-0.1206105205,0.2056374084,0.0222395146,3.5379554881,0.4474582365,4.9130182358,4.6916490553,-3.3479404306,-0.9672849377,-0.1714538055,-4.6557852443,-0.5083999391,7.6324465757,-0.7006647189,0.198125414,0.2337839559,2.7441449499,-6.4647818337,0.1558195691,0.328172132,-0.2066508042,0.4314258949,0.2920605842,0.2459225955,-12.9336103263,15.1675622232,31.9520024069,0.3621220706,0.1202034132,-18.9210374386,0.254789277,2.9126076164,2.739932189,0.0588210685,17.1378616928,30.8869884816,0.2327505755,0.355652888,1.98053324,13.4517434982,0.7261621854,0.4652168024,0.2080426367,0.3262897285,0.0392811665,0.0561182942,-6.8891217374,-19.6999955302,0.3587595042,0.2064009727,0.1809834505,3.9598824008,63.0898611039,0.2527341762,0.1392742516,0.1384396448,-0.2909632577,0.2172657705,0.1896843268,-1.3645111792,0.2523226593,-0.0076441604,0.0182411879,0.151271444,0.1045667423,0.3926497033,0.1963971793,0.3260470106,0.05610912,0.0200604987,0.0102887056,0.0458314941,-0.5267270097,0.1768486887,0.2212177819,0.0993690045,0.045215129,-0.1070905484,0.3098979826,0.126927253,0.055379868,0.2499158859,0.3200923819,0.3356020184,0.0023344269,0.1147630629,0.215959891,0.3060325979,0.1553976254,0.1020345095,1.0836778138,-0.1447462719,0.3256910571,-0.0525597507,0.0742073747,0.3709868109,0.3148738434,0.1115623784,0.0924820297,0.9131338607,-0.1145270498,-2.7831397479,70.354890475,0.3144109993,-0.0687485226,3.7111736609,-0.3046496993,0.2240682475,5.0699261282,-0.2949523054,-20.5341076687,6.7223232348,0.4227394184,-0.3160736637,0.2233311086,-69.4097862897,-11.9916753912,-0.3064667463,-0.0424820054,0.3411726347,-6.0186439193,0.2678947466,0.1628519224,-0.0285129593,-0.3100753345,-0.3011722371,1.18046633,-0.1213452954,14.8825451606,-4.2387492335,-2.1802725213,-8.1064297158,0.2604952696,7.2509569739,34.8525788037,-44.6769495867,0.2802216375,0.1645639287,0.3751813091,0.2482628576,-0.2245798183,0.2564285498,0.2814235722,-0.7103877595,0.2744900643,0.0078308274,0.2165236097,0.325698564,-0.0131082275,0.034185315,0.1154572869,0.0369554607,0.1484458603,0.1501584484,0.1401470465,0.2309465731,0.2674135728,0.1647138852,0.0842544866,0.1408094058,0.1377128287,0.1471110768,0.1577892069,0.0370959663,-0.2736787794,0.2238392126,-0.2977359453,0.1818871713,-0.0187781659,0.2539540237,0.1767583273,0.0213681612,0.2916782627,0.0489596983,-0.4133488504,0.1747384255,0.0065610839,0.0756143206,-0.2466004617,0.3354406082,0.2091599988,0.176822516,-0.2330874965,0.1235373625,-0.7729145153,19.1536470288,2.1701924338,1.1438387291,0.3385323615,0.0932526138,0.1306616079,0.2035308309,-1.2514635871,-0.0890906055,2.1838406999,-1.2120986287,1.5298247397,0.28854762,-0.3017967228,-3.5904761682,0.5103356171,0.0747802633,0.2320486567,15.276992153,-5.9958365976,0.0022017108,-0.8742698567,0.0362137542,-0.1050723767,0.3454578703,0.1695094389,0.3595474137,0.0501372103,0.1161010939,0.2636969717,6.2160269154,0.063116828,-0.2751655728,0.0381940913,-20.5284536054,-3.8854238981,-0.0552484093,0.2155315814,0.1210676854,0.1783424211,0.2089248406,0.2905331632,-4.4186333849,1.2854006614,3.6575405503,0.0870638498,4.4523457479,0.3513807112,15.6320992946,1.1532168716,0.2575325199,7.3666487884,26.3855376556,1.4412358208,0.2980825454,-3.3631713383,-6.0538551885,1.464112425,0.1514295118,0.8874580117,-3.4440395962,4.5081057862,0.9792144495,-1.6770566756,0.1442820716,-5.721554152,0.1806722312,0.2170880873,0.1545219691,-0.0248570183,0.7468716504,-0.8620665347,-1.1521997412,-10.2695565922,0.6435727273,0.0639396085,-7.4018515095,-1.7510201405,0.1710156935,-1.0481075738,-1.1382500001,0.0704765388,-0.3536644691,-0.3769296427,-30.0662007376,61.6319926486,0.3009884826,-0.3767296714,0.2051767347,-0.5663527979,1.0803716159,-9.3574309553,-0.294562612,-10.9246094315,0.237894169,0.6366134923,-0.4513627816,0.4335453577,2.8952206258,-2.491173492,-0.6260697359,2.2636881989,0.2102397562,3.3446487185,0.4418082923,0.1480273031,-0.0888237637,0.7398649732,-0.1808583074,-2.7742877418,-10.5760397213,25.4284236198,-2.6903755969,-3.7772645796,-12.9681892444,0.4731189321,1.1816275632,-53.6904249485,-12.7945405982,0.1815004356,0.1936714873,0.6002949462,0.2742957988,-0.5364499815,-2.5941327205,-0.0032406613,10.5935337868,0.351127993,0.2006382336,0.2319916982,0.3804232775,0.1436095105,0.2258940585,-1.8305615799,0.2754563536,0.9861155953,-24.4666355123,0.2627926669,0.2650643248,10.8630557925,1.31926538,0.2826865248,-0.0248569106,0.1044954997,17.820555138,2.1185850835,0.280417269,0.3141327422,0.1466676233,0.4208352428,0.1039444755,0.128507837,-0.0379908277,0.3478936605,0.6825229825,0.0358903284,1.0411733095,4.2687794305,-4.4862003879,0.2676841502,7.4693391493,-1.3313839569,0.2086081318,0.4393717676,0.1827718761,0.2269476883,0.2681195243,0.3049541442,-21.7044992982,0.3499259259,24.5900159599,-0.0886521342,0.1549028878,0.3534029361,8.5173397087,-1.3827063371,0.227718174,0.0066725591,-27.0076610815,8.4765244602,0.1786144639,-0.0296141345,0.2028425275,0.1839842694,0.2854702275,0.9291818165,-0.0494760847,0.1984089484,0.1881407351,-0.5682064284,0.2223141467,-7.4942294006,0.073178366,0.289179235,0.1830372114,0.0294204051,-3.0596708191,0.0553422781,3.0800858965,-10.1310228223,-14.698205407,0.625736452,0.1260809891,-6.6503462867,0.0820663056,8.6938092702,0.1340022138,-0.1933080828,0.1356885665,0.2930941944,-3.6529181033,0.033901386,-0.0032532035,0.1250908015,0.378048581,0.0041027291,0.0723441817,0.1875606504,-0.188496651,0.2927201365,0.2022956116,0.1316050562,0.1228109876,0.0938943379,0.3534179761,-0.014200739,0.0116023971,-0.1309913949,0.2508624057,0.2650205674,0.214211781,0.308292507,-0.0032419175,0.2293163894,0.2282622343,0.2673849084,0.0156199535,0.1301246257,0.3251173568,0.3479300994,0.0610719964,-0.1613403953,0.0636436109,0.1094665509,-0.0982598182,0.1940244311,0.2246876666,0.2318206749,0.3402220216,-0.1773724484,0.0008879888,0.0805337715,2.046696869,0.199191802,0.735630813,0.1796200529,0.2982904589,0.0536791601,0.4801507559,-0.0146450188,0.0162577374,0.0025706127,-1.989297298,0.3753235005,0.2710701133,0.3191565301,-1.4413202119,-0.0524343165,0.3162311839,0.1158073055,-0.5861131067,0.1862328325,1.4863236765,0.3608433777,0.3060425225,0.1953094711,0.2691714132,0.1618622274,0.16572146,0.3438125261,0.3367055968,-0.0520268618,0.8648577951,0.7895872281,0.4530214695,0.2085344257,0.8280883589,-1.1114282478,0.3938978188,0.2758365386,0.2070139936,0.1549482959,0.1650201327,0.0625708548,-3.7584406797,0.2653722721,0.8860282878,0.0891781919,0.4735287106,0.2456644492,0.4146036583,0.3173692364,0.2292824491,0.6664386562,4.2516332494,0.0917548803,0.1995539551,-0.6726331424,-0.4100626801,-1.7461386643,0.2989059607,0.4478433707,-2.1324909285,-0.4003225682,0.4154224968,0.4078441342,0.101263428,0.4480904768,0.1258962638,0.2821601848,0.3597175901,0.3842066297,0.0817948706,0.1996392264,0.0905434958,1.0257143895,0.2389193296,0.2026093618,-1.7009672865,0.7814823279,0.3835691582,0.503321729,-0.1202294493,-0.4126040958,0.5447642856,0.3388427845,-7.177553673,-75.4196214022,0.3964299399,0.0653077648,0.1436455162,1.1401353656,0.3978637377,-14.5542219986,0.3646242201,2.5259857411,0.8069637253,0.5033597625,0.4537337868,0.1105000572,10.7259335469,0.3221178693,1.1426370301,0.6266120632,-1.2774091124,45.882308683,0.2664582503,-0.2400946681,0.3429853319,11.3795443386,0.2711281424,1.1829956249,22.0288720281,2.5674997554,-0.9784323094,0.0925508675,4.6201117486,0.2275264331,-0.2213706386,0.3882453053,-0.3216961843,-0.3412970346,0.0029221893,0.0473846003,0.0570630685,1.3112053007,-2.0753253244,0.060214655,-8.914913499,13.6297890577,0.6394581456,0.1194604299,81.0064842346,-0.2332489159,-11.170505425,0.8674804062,0.2047150118,11.7964436577,-47.8490700648,0.5411539929,-2.5176018288,5.8644677403,10.5531560128,-0.0340424767,0.1978436149,4.6340481766,0.6285508886,3.5887701169,-1.5171418362,5.984005868,0.1398679012,327.2421736216,0.0707008498,0.0220493438,-0.1708961173,0.5610237548,20.6622330916,-0.8275419757,12.5427257476,0.3471053037,-70.6155344618,-3.1584361668,138.3355133017,0.5295430365,1.6704892298,1.8561101904,0.0565708819,-0.1284707752,-4.4133009484,-0.2662429952,-11.6088347749,-0.7366611944,0.2897458733,-0.2555309902,0.3537328677,-0.3580975384,1.1271810556,-4.6083895111,-0.1611525835,8.5090886242,10.2654276149,0.3758824575,-0.2977359882,0.4334297035,-0.7808772564,-0.0217441165,-0.352256147,1.9231276372,0.2722669667,-8.921519308,0.1992746252,0.150557475,-0.2742628514,-1.9104074701,-0.2089805302,-6.443567666,-7.6032096772,-8.4982005803,-5.4724093662,-1.2484132591,-4.1456390922,0.0555797775,14.6528009728,16.4324071195,-12.2935422817,0.138402273,0.1848804046,0.5731051375,0.3865291383,-0.2354146775,0.2608834545,0.3333335387,2.654934307,-0.5124547507,0.1345746646,0.1337015162,0.1596427077,0.0558708802,0.0638960183,-1.3037918114,-0.0148381397,-6.309950945,-2.3949623933,0.0712054984,0.3205610018,-1.5498337752,-18.054404191,1.540980522,0.0728510626,-1.1315911117,0.5455436103,17.0964326662,0.0815740778,-0.1516219011,0.0613220253,-2.573093072,0.0409567295,8.9687022888,-1.2787674332,-7.7088917497,-22.6649421686,2.2709890513,-0.036344516,-0.3033707423,-0.0618584018,7.7890181592,3.4542764735,0.6137098083,0.2780770901,0.3435550328,0.3480414199,0.3713017337,0.1114950084,0.1742408001,-0.6460773205,0.349584789,0.1517671573,0.2724672436,0.3800534383,0.2237328029,0.0467604194,0.258503761,-0.1392432041,0.0468204034,-0.2902400809,0.0771193989,0.1956643447,-1.0529335906,0.3143130782,0.1200749355,0.1692764506,-0.1308582645,-0.0620723431,0.1443392581,0.3824674811,0.0591876095,0.0385655751,0.2648297736,0.034519816,0.2330637446,0.2603194448,0.130158934,-0.0051706,0.114373627,0.0478776601,-0.3543578329,-0.1092061888,0.270356791,0.4182176177,0.3190367219,0.287050353,0.1544934676,0.3890721839,-0.042445105,0.3135467645,0.2830618038,4.8606705271,0.285204191,0.3511852937,0.2239450769,0.4056449771,0.2558754815,0.3284322742,0.1946710654,0.0047263595,2.154215431,1.0581380007,0.2016672312,4.7847049092,0.2204305384,0.2093884196,-4.8308452861,0.0638621048,-0.5338600611,-2.1970432665,0.1217399292,0.3300713755,1.0967971768,0.2971895886,0.3276105671,1.2306604034,0.0701047903,0.0853539462,0.4653988335,-0.8130007776,-1.3130644182,-1.4320480134,0.8323748164,0.2825638537,0.1217762687,-14.1484064178,6.2076312719,0.2176967637,0.4233413854,0.2617995279,0.0027672448,0.1796334942,0.0416625979,-1.1405683479,0.0604237729,0.0620593232,0.1456739072,0.2376593477,0.3151315024,0.0796030252,0.0003779907,0.1199286888,0.1436752596,-1.0508148663,0.0204395167,0.2331488518,-0.0696295417,0.3135336772,0.2410711564,0.0295900124,-0.014810122,0.1740589405,0.2708314173,0.0154490056,-0.0955611165,0.3117568846,-0.0422020413,0.3193709185,0.0584658164,-0.0118136602,0.1195534554,0.0304373365,0.2192781517,0.0563481786,-0.3237703564,0.128172352,0.2247489893,0.8108469891,0.1721106793,0.1830108391,0.0128189316,0.3702721489,0.1821146797,0.0310287701,0.3943818779,-0.4296703661,-42.2742383936,25.3030615316,0.1496792326,-1.8043699099,1.0208529811,19.439978148,-0.3168899831,0.4184211185,0.1878843235,-0.1876820076,3.4615600405,-0.0757100268,-0.0445722329,-0.0043609557,-0.0142072723,0.9015689874,0.3474437016,0.41141856,-0.000166786,4.8940110534,0.7076967045,0.1832995414,-0.9475639726,0.0778364718,0.9159541253,0.8707738182,-1.4772997542,1.0419372058,-0.2481091031,1.8843467088,-1.5309464567,-0.7261866969,0.0450898468,-13.2812866734,0.5503609291,5.6699816827,6485.3886182815,0.6625585072,0.6543213598,0.3427714074,1.0382289221,2.2486014067,0.3368499466,0.6631675005,-1.3040078633,0.3206049754,-0.0197199544,0.4993935645,-1.650094203,-0.8455433545,2.0153194911,9.1504583639,0.5627778238,1.9487359008,0.203513253,-0.92511146,-0.3603366891,0.2604597821,1.4751695493,19.2527684912,2.9374263365,0.2905375204,0.2412059364,0.232860145,1.0756001818,3.9810240553,0.1967708565,0.3222163811,0.1601572683,0.0956720975,-0.0797768771,7.2891950178,0.5946451727,0.7710613307,0.0649285589,0.9624970249,2.2437900935,0.1341317484,0.1505838157,0.3953775617,0.3048180141,0.2528215777,-0.432747265,-2.6237480265,2.0074937776,0.0409227728,-0.6145978639,0.2802237329,0.0604584997,0.4497192063,-2.8407024914,-0.4439022591,-1.2293157163,0.0757330038,0.0439863516,-0.1510816857,0.1200293581,2.9155392157,-0.0596331509,0.051304944,-0.5574192766,0.328017202,1.1555912233,0.1246626859,0.2131756346,-0.3897407981,-1.9635874477,-0.5422342461,0.1158147039,-0.0514744629,6.4038245656,2.3845840344,0.7151917035,2.9434918892,0.1818299934,0.1353316727,1.9143884778,-2.491588985,0.2745966589,0.1422475411,0.2665481622,0.1019738897,-0.4927285381,0.4111825447,0.1807711938,2.6257898015,0.136748952,-0.2042621433,0.2604385268,0.1897286087,0.0018902532,1.2319509192,-0.5770017847,-0.2214046804,-0.5266688226,1.5377739943,1.5664226994,0.0076867454,0.2625473162,0.221869165,0.1896378558,-0.0120420838,0.3104430987,4.2990454201,0.3533630171,0.3232289516,0.3701467196,0.2442484792,0.4529966574,0.1955021314,0.061459483,0.3198402629,0.3504811514,0.1408499498,-0.0567503733,-1.6441296427,-1.5192641509,0.2770003055,0.2077909635,0.5425789258,0.4679907394,0.1392906404,0.413985274,-0.4678344022,-0.1183832814,0.0587220382,-0.1630815106,-3.6015952323,3.9044078989,0.1623752116,-0.2171991598,0.4660122004,0.1112642367,0.4641523377,0.7390518423,-0.0200101206,-0.193005162,0.0932324826,0.1030813511,-0.006458561,0.1747095297,-0.4965150707,-0.16898652,-0.0673186479,-0.3051711036,0.2810077751,0.304586191,0.3343603673,0.1891230571,-0.3935170866,0.2689536122,-0.1709010478,-0.419828898,-0.0363123856,0.1940255136,0.4460166907,-0.3562207315,0.4052311642,0.1500552444,1.096765811,2.7673594798,-1.8197222912,0.3695772749,0.8695207192,0.2314963231,0.4081282249,-0.5076783177,-0.2690032599,0.2126323862,9.0007922978,12.1513005913,1.1596797203,0.0100568708,-22.1883579251,0.458925527,1.0928967822,13.6953187054,0.0352353575,-0.794522676,19.9248535591,0.0974135962,0.346152552,5.1884760055,2.5995615138,9.5498451261,0.6175757789,-0.4427199029,-0.0874963185,5.601306458,-6.2186498129,-3.674079547,0.1378836232,-5.8087341777,0.2622225486,-3.7124608679,0.2923300814,1.3667586214,3.8291521636,0.80696012,-3.3400280224,5.4734101398,22.5295860969,2.747161099,5.9585212828,-1.692457389,8.027865018,-0.0260585001,-0.3064436314,0.1846822686,-0.0256021731,0.1648369427,-10.4170231207,0.3653942862,0.192566205,0.0049803183,0.296295754,0.0692604727,0.4867639637,0.2964076347,-0.008412221,-1.137196447,-1.3016682543,-0.1268182515,-0.2445582616,0.9694501177,-0.9686230408,0.3256803602,0.0276542551,-1.024348166,-0.2681561413,0.1811638109,0.1499122053,0.2166683487,-0.2648151113,-1.9668844755,0.2981391711,0.1492988256,0.2036601789,0.3949054267,1.8228729368,0.2133618937,0.2542363606,3.6604429044,-2.2158438238,0.0135266826,3.7711638789,-0.1953534991,0.4104083762,-0.1240625872,0.1289305935,-0.1350880491,-0.1511981386,-0.1504610388,0.8019817709,-2.4768321866,0.1140308584,-0.1881563686,0.2095983426,-0.1763675383,0.2637299709,-0.6886482823,-0.2071186123,-0.14426878,0.1000256576,0.0819359256,-0.1053660482,0.3167983555,-0.1035306568,-0.1785805717,-0.0186759146,0.0386418684,0.3429711075,-0.936801803,0.2683304656,0.1630827093,-0.1785224407,0.3166707741,0.1110048117,-0.4345901394,-0.1228128965,0.0735091954,0.7203199455,-0.0455364558,0.3872975302,0.0569649471,0.2162435047,0.1918028342,1.9524296228,0.4094772776,0.0720796337,0.1002751175,0.3008780755,-0.2375386181,1.2834071509,-0.021393,0.1299351783,1.1275102348,0.3670562413,0.0051095755,-0.1960926505,-0.0344425648,-21.4195039067,3.0333158669,-0.1621727888,-2.5677460819,12.2997397015,-2.2034562091,-0.025667917,-8.9208156643,1.9166061281,-0.4298289645,0.2513977071,-1.3244543939,0.3559361628,-0.1151157271,0.4923057002,3.913861151,-0.2919827499,6.6406687081,-0.1777762538,-0.0180768511,0.326404272,0.49793304,1.1870769018,0.5486077777,2.6989467525,6.0327088999,0.3216707899,-0.5315869972,-0.3723215579,-0.4053444782,0.0708287576,33.6961466798,0.2530384853,-0.2230993068,0.2082217163,0.0158328305,0.1179103763,0.2546618593,0.3390329875,-0.024231569,0.1503207138,-0.0278325655,0.3676035602,-0.0693587293,0.2074816384,0.043096497,1.5158197177,0.1826962703,0.0164080766,-0.0068024371,-0.0145698117,0.2315515819,0.1459466506,0.0169979151,0.1493610199,-0.0863594017,0.2148392672,0.4498980117,-0.1512483417,0.4443658734,0.024697617,0.0855326817,0.1161034474,0.3579040115,0.1985463307,-0.0034115196,0.2815463169,-1.0959100411,-0.8566664263,0.0166755557,-0.7125220762,0.3439816344,0.0717404497,0.1320383835,0.145101238,-0.3325711882,-0.0754205337,0.026593546,5.8287229317,3.6542143203,-0.4105400437,-0.0653601056,0.3804158024,-0.0457097541,-2.3418586292,2.7545429517,-0.0315050615,1.3396690674,0.4170990891,-5.9221332352,0.092210834,4.4013432607,-3.9315399013,0.0799038078,-0.0786067166,0.0218861812,0.2316171726,-2.8577219104,0.4188664767,-1.3008656064,0.0871979045,1.1630330951,0.1961335022,1.0472312835,-0.1454050744,2.0563397218,-0.8394393395,-0.5424202125,0.0475165724,0.3208072239,0.6317970064,-1.5853394441,2.7037988501,0.2037032024,0.3625418532,-2.0410135579,0.5901156753,0.0116290215,-0.6054210984,0.1729332033,4.553370953,0.4073226576,0.694577115,-0.0482948982,0.4564401666,0.3307511236,0.2307013109,0.3290298055,0.2925534776,0.0316585669,5.2513970638,0.4494456394,0.3241821684,0.2910036068,0.1819226566,0.0901272902,0.2743947336,1.0828915299,-1.2165994003,-1.3676813015,0.2565780193,0.1534641588,0.1874659699,0.0953497102,-1.4219852159,0.0213106432,0.2564024492,0.4194575542,-0.1542631046,-0.2707627428,0.0483332267,0.8063528102,0.2760206134,0.307947901,-0.5884969784,3.885819017,0.2079658194,0.2733144101,0.3271756071,0.2649266064,0.0016185852,-0.3636544905,14.4681034732,6.4161870751,0.2966352738,-0.2903897825,0.1531823594,-0.3795862871,0.2769628768,1.8570923284,-0.4263999987,0.4612385737,4.3787544179,0.0662299084,0.0702851283,0.328434528,-3.3335830291,-0.2585799899,0.1121731384,-0.3293465102,0.334604724,-4.2433634202,0.1951571525,0.39449301,-0.1660749332,-1.2979497721,-0.3377651461,1.4362029917,-0.1720711764,5.3543608808,-0.3632344326,-0.138185603,-1.2565723919,0.280338657,-4.7600108883,2.7146785054,5.2070170284,0.3671564728,0.5108795184,0.2573937878,0.4912951685,-0.003513027,1.2704687281,0.1921169703,-46.9282353549,-39.5877851159,0.5651642101,0.0625539685,0.3244765945,0.2810279926,3.3983616667,18.019778644,0.1816879355,6.3030035892,9.9860319873,-0.0827738074,0.0558445801,-0.103224211,-6.4259627339,0.2492519862,0.5289873509,-3.7878860879,-0.5459584382,-8.5750776697,0.1184453936,0.0429417635,0.2990978683,-0.0649518832,0.3302738018,-4.0032038209,-2.7036009734,-2.5431403224,-0.8426871587,-2.8884714212,13.4760671152,7.0096400587,0.1438998384,0.8035142678,-42.2297571047,-0.028642416,2.801619205,0.0475597012,-0.0377052343,0.4551773622,-0.1803480752,0.0014794094,-19.6479082071,59.0355890316,0.5551599305,0.0048885746,0.5205428415,0.1110783041,0.2656200389,8.7808576128,-0.0923538398,-3.3830484203,1.6627456428,0.5663226551,-0.0476169176,0.7129757528,-3.1552094146,-1.8286743214,-0.1676732692,-0.0200372458,0.4911523476,8.786667094,0.4837120803,-2.7353365023,-0.1898391413,-13.6623046033,0.0286879811,-12.6558949751,-4.7795681167,122.699397502,3.3535365979,-3.8363302145,4.1047634774,0.322010693,-14.3038701158,-8.755208205,-60.8226786549,-2.1680297066,0.5425141644,0.125975162,0.6324523804,0.1166018861,0.456117776,1.7899886467,-8.1719425513,2.5692155095,0.1418228266,1.2341265003,-0.16927522,0.8038064615,0.3010814877,76.9424904048,2.7507231953,109.3690428993,-0.1128749836,0.1081629905,0.5450387702,-4.7258367875,-104.700427326,31.5661166577,1.0050717941,0.331541874,-0.5037754585,31.7460084205,-0.1299704453,-0.0399701669,0.9980151133,10.9438582008,0.4121978094,15.3329789769,0.7736129721,-105.0534072931,0.4471043083,0.4278082719,-3.1765095181,0.1190873392,25.2741488593,24.2610887878,134.7528686078,-0.0642164284,-0.1000271407,0.0743177028,-0.0704203,1.1755493539,0.2005673431,0.1890396044,0.4646991319,0.0953203241,0.0508188035,0.2443185386,0.2012867145,0.0073474941,0.2298583887,0.0489787976,-0.169485409,1.0506831427,0.10640886,0.3160629241,0.1987792594,0.116562699,0.9956571331,0.1431949926,0.2559788825,-0.1368768631,-0.36451303,0.1176731856,0.312817036,-0.8779396555,0.1570110103,-0.5426375281,0.3033651944,-0.0223291339,0.2787064806,-0.1010933307,0.4280445392,0.330423656,0.0265525722,0.0066337427,-0.3226097848,0.0247949806,-0.0583969132,0.0895027017,-0.0259898618,0.4111000451,0.3007492988,-0.0945977823,1.7742041312,0.807092426,0.1346138839,-1.219428869,0.3859052759,0.5005340678,-3.6393395644,0.2382655677,-0.1443299817,2.1846031723,-0.0336824302,-0.7425758076,0.4933328371,0.3573310528,-0.4530382283,0.2245208102,0.1958647583,0.3588858613,0.1180243593,-0.273151927,0.3728111169,0.2332595035,0.4021508015,0.1451022091,0.0067616336,0.0119480988,0.2577633458,0.0455776077,0.5592299512,0.2976394797,0.2568820924,-0.0413174638,-0.0170671615,0.3136034185,0.1156536887,0.2485974303,0.2723007343,0.2413674887,-0.0676616865,-0.1222266929,0.1720660641,-0.0249714503,-0.0921255476,-0.0940967882,-0.1462973331,-0.2481555063,-0.5672874407,-0.045999772,-0.2288331115,-0.7238136435,0.03631146,-0.2768373355,0.006118312,0.2192923672,0.0018611544,-0.0089522306,0.099995394,-0.1741787074,0.2590694268,0.3067586993,0.3707669667,0.3456859837,0.3077686105,-0.359221482,-0.007577413,0.2408384671,-0.139098859,0.0866399872,-0.0839644102,0.1528168242,0.1665293007,0.041425161,-0.1020892747,-0.0535567589,0.1807925558,0.0791352427,-0.06613328,0.2858953577,0.3435621596,-0.1941327155,0.3105407267,0.0525924335,-1.2354701129,0.1420597816,0.1825464566,0.4377366356,0.4419605115,0.2820468813,0.4374919066,0.2513034361,0.3315395308,-0.0422250225,0.3220452329,0.3747128048,0.1338318445,0.0759290146,-0.0821802915,0.2047237787,0.0579968839,0.1825282775,0.1403409028,0.3033098117,0.1908604672,0.217741557,-0.2183630324,-0.4068413471,-0.0144355148,0.0818407434,0.284185691,0.2575895406,0.3550744278,-0.4384452268,0.0520127079,0.4000733117,0.096498163,0.2636712958,0.1386675761,0.1828762382,0.3687491467,0.0478661551,0.1205821923,0.1123248579,0.1772319962,0.4488530706,0.4077612408,0.0344667182,0.3927853309,16.8553500145,-0.1155051438,0.0581864267,0.0742840561,0.1655374049,0.1789988771,0.0187503641,0.058735631,0.1245516342,-0.1189665916,0.1212146437,0.0443005336,-0.0283371272,-0.0408940714,0.154373559,0.2113322996,-0.1718351419,0.0776933537,0.4003638888,-3.3914620498,0.1355093966,0.1751740769,0.0350439099,0.3450308572,0.3901774872,0.4508977664,0.4028781466,0.0520694714,0.396392581,0.3703120324,0.1667036295,-0.1874461853,0.4131238136,0.0810298741,0.4092267678,0.2173297651,0.0818860184,0.097726834,0.4244315207,0.3841836878,0.411236483,0.045223878,0.0785927755,-0.2670429555,0.1377305321,0.2874517137,0.2990296327,0.0324734077,0.0747199552,-0.4123187574,-0.1207730284,1.8486110403,0.3380984413,0.4805499624,0.1475712008,0.3518753664,0.1223610745,0.2765641885,-0.7642662014,-3.8239747355,0.5848129555,0.5397816032,-0.0689451325,0.0971642748,0.3857026151,0.2217819085,0.0639627599,-0.0364709477,0.2560894763,-0.1544892596,-0.3937057145,0.2869866377,-0.1848617077,0.2146569253,0.0054386746,0.2657254542,0.1395622227,0.066157629,-0.0698750386,-0.0192786556,-0.1236031924,0.2480137011,0.2746932931,0.3292140004,-0.0496910325,0.0300590935,0.3255112236,-0.0449246788,0.1170237108,-0.0446375726,-0.0164784888,0.1247388706,0.0137940022,-0.1912420914,0.1378393533,0.041709979,-0.1933241787,0.4318295218,1.2678403348,0.3395543754,1.111935726,0.4385702233,0.3109010862,0.0496139039,-3.2786459132,0.9976230352,0.4820048248,-0.1186128507,-1.2226196887,0.2432402352,0.2920387179,2.187222484,0.2825358094,-0.3288061226,-0.2865659045,0.0027704877,-0.0567732445,0.3048073583,0.3237441111,0.2702126601,0.3362267148,0.2595176642,0.1845420533,0.3421337916,0.3146547955,-0.0346241926,0.1469970596,0.1413064114,-0.3357644883,0.3361186546,0.3365613903,0.0325545355,-0.2786314844,0.3144943164,0.2433517591,-1.972019759,-0.4933480991,-0.2026936595,1.091234787,1.0741046625,-0.9742555513,3.2175091142,-3.5856031976,0.4011346287,0.392337955,0.3085688896,-0.9813271563,0.0974765551,0.1636466132,0.3582050734,0.2021097306,0.3280825937,-0.0627030793,-0.0125103773,0.2539555223,0.4023256652,0.541992673,0.1826527502,0.4136470316,-1.6036129635,0.2508616965,12.2216169819,12.0997783456,4.49110293,4.402570585,4.5766223214,4.3203628768,4.3591022639,4.4970607471,4.4840522959,4.3844323474,3.8919823887,3.5106922762,3.809385893,10.0880346351,4.0423586484,15.8854026866,23.1860538977,-1.0154741302,3.6871377362,-13.7349847906,-1.4747018152,-2.9507119164,0.3682411977,-1.6302952065,3.483339385,-2.7795572963,-0.6454716159,-1.2606004138,1.5199681366,-2.9713128327,-0.390794583,0.8286882975,0.0013698861,0.4966873557,0.0674933451,-0.042318974,0.0538857589,0.2388512672,0.2752547355,-0.0841890443,0.2370124746,0.3534131981,0.0477285578,0.1191454075,0.292584997,0.0748451298,0.0388043222,-0.1489048617,0.4775673198,-1.6815671474,0.1882475143,0.0540570399,0.3936372095,0.5953959061,0.2083066661,0.2448248478,-1.8775227301,1.6672451018,0.3737513098,-1.0988960184,0.0849768145,-0.326077626,0.5256323814,0.2701442688,0.0642485899,0.3384730058,0.135370385,-0.013795275,0.1213901904,0.0480756863,0.0180140348,0.2218895671,-0.0613219441,0.2298430334,-0.0819220619,0.2663188044,0.1781058796,0.1811304575,-0.0514652707,-0.2781262112,0.1431945353,0.3975756272,0.0112104186,0.1333689328,0.1192961601,0.3654628173,0.02949858,0.3322085954,0.2283713743,0.056822067,0.3263350943,0.0548422983,0.0786261021,0.4089351486,0.6060201579,-0.6228732438,0.0625015705,0.3358448997,-0.1195933659,-0.033991461,0.2920448307,0.1906640278,0.200173532,0.2621455179,0.1062225699,0.2645899465,0.3342021905,0.34015572,0.3519405703,0.1679614394,0.1599214768,0.0375871868,-0.0750042184,0.3578866172,0.3476664295,-0.0461514479,0.2286368642,-0.0378379089,0.0185943902,0.3233644393,0.5724283655,0.1689242566,-0.1010588556,-0.4675307926,-0.6615121244,0.0450632537,0.2177246768,-0.2570219605,0.2395652924,0.3013483835,-0.261355589,0.2736746299,0.3405202722,0.4210253366,0.2937214675,0.1199258607,0.0748644902,0.2679062197,0.457947359,-1.7006513904,0.4119918064,0.3884301182,0.4448236971,0.1474083726,-2.8327730647,0.2948040292,0.4214792132,0.6711020212,0.8003210276,-0.5156804663,0.1067523965,0.6339083049,1.1982626245,-0.8368687246,-9.2331658798,1.7733934621,0.3169970815,-0.2248802049,0.1892108843,5.455605476,0.0107100358,0.2494676686,0.1802636117,0.1407789801,-10.2978835676,0.3004512441,1.9194191429,1.0348575817,-14.2564106615,1.7417210173,-1.0492884427,0.1149032262,2.4855454377,0.0350166337,9.9071427497,8.3388566718,0.3209101812,0.1822763841,-0.2552832291,0.0043753461,-0.0204836975,0.0733169273,0.1419445607,0.2099551444,0.3456158384,0.2984858032,0.0040144066,0.0214898819,-0.0545973761,0.061440814,0.3044484663,-1.2274019712,0.5404293027,-0.1422771637,0.0698326364,-2.126415417,0.1989990131,0.0400948795,0.4640237064,0.2043884616,-0.1742440943,0.0773873828,-0.1257246569,0.2543084631,-0.2650772513,0.0645075381,-0.1026472379,0.5095044315,2.007211039,0.4727379268,-0.8643756991,-0.498418461,-4.2072740743,0.5510123999,1.780250703,-0.8979515407,-4.6472483129,0.929765683,-2.2538350087,-2.4008531349,5.0938781909,0.50320055,4.8451708204,0.5591664328,0.0384349462,0.1775814738,0.0272028775,0.2331984524,0.46097127,0.007180499,0.2795095904,0.4656127261,0.2302446701,0.4742683251,0.8937780712,0.4801473904,-2.9398204251,-2.5314332484,2.1886253911,0.2474062438,-0.3317499428,0.1625390419,-0.0653330503,0.1092186206,-0.1293677298,0.2899692311,0.1760018961,-0.0297692681,0.0212600565,0.1286812867,-0.0619662261,-0.0900420389,0.3219573604,0.2755700787,0.1604899026,-0.1711233805,0.2820098329,0.1522835694,0.0528190971,0.2246288193,-0.0551088142,-0.0307495706,0.3587230604,-0.0518544029,0.1009039667,-0.0169655332,-0.316550954,-0.4247224748,0.0338089705,0.2830511167,0.0568350401,-0.1985725396,0.1407464075,-0.5024392147,-1.0520856277,0.1174143239,-0.0176757709,0.2931875743,-0.0567250155,0.0520684575,0.0651686611,-0.0220206853,0.0368984413,-0.1864449829,-0.0768651376,0.385570812,0.4693485535,0.342565768,0.4314137359,0.1700492909,0.4213754651,0.3091877397,0.0760664565,0.2619555334,0.0211018365,0.2017340369,0.4221806207,0.057624468,0.4108243774,0.0115727793,-0.4783270476,-0.3972790951,-1.5123261217,-0.1187368587,0.442502222,1.3910640256,0.1801577213,0.4056576499,0.4604114495,0.2842526161,1.0401876622,-1.1738171488,-0.0985394736,-0.3971984141,0.9474344448,0.2426551573,0.4588432492,0.1610911772,0.7009920034,-0.3467901751,-0.2211459715,-0.1199403261,0.0011845111,0.2787294361,0.2147407386,0.0055182836,0.2252653067,0.2816416002,0.0170661045,0.0174048427,0.0614807168,0.0431513067,-0.0656113128,0.3622376334,0.292289647,-0.4505828898,0.2075668425,0.0235051629,0.0864967522,0.1194909583,-0.0596614727,-0.0132055894,0.0536316841,0.1652043077,0.2985716549,0.0192770183,-0.0272786599,-0.0200742864,0.1899682281,-0.0330219036,0.3854938961,-0.2786298169,0.0367264357,0.3335044117,-0.0153168453,0.3626070243,0.1727135943,0.2817015067,0.2625294811,-0.0130960636,0.0868228543,0.1756906705,0.368470355,0.3062827108,0.2084237625,0.0991153471,-0.0523873664,-0.3643593742
biasActivation=1,1,1,1
[BASIC:ACTIVATION]
"ActivationTANH"
"ActivationTANH"
"ActivationTANH"
"ActivationTANH"
